<?xml version="1.0"?>
<MethodSetup Method="MLP::MLP">
  <GeneralInfo>
    <Info name="TMVA Release" value="4.2.1 [262657]"/>
    <Info name="ROOT Release" value="6.14/09 [396809]"/>
    <Info name="Creator" value="sblancof"/>
    <Info name="Date" value="Wed Jun  8 09:55:54 2022"/>
    <Info name="Host" value="Linux cmsbuild16.cern.ch 3.10.0-1062.4.1.el7.x86_64 #1 SMP Fri Oct 18 17:15:30 UTC 2019 x86_64 x86_64 x86_64 GNU/Linux"/>
    <Info name="Dir" value="/afs/cern.ch/work/s/sblancof/public/CMSSW_10_6_10/src/PlotsConfigurations/Configurations/WW/Full2016_v7/DNN"/>
    <Info name="Training events" value="329233"/>
    <Info name="TrainingTime" value="4.01912813e+02"/>
    <Info name="AnalysisType" value="Classification"/>
  </GeneralInfo>
  <Options>
    <Option name="NCycles" modified="Yes">100</Option>
    <Option name="HiddenLayers" modified="Yes">N+5</Option>
    <Option name="NeuronType" modified="Yes">tanh</Option>
    <Option name="RandomSeed" modified="No">1</Option>
    <Option name="EstimatorType" modified="No">CE</Option>
    <Option name="NeuronInputType" modified="No">sum</Option>
    <Option name="V" modified="Yes">False</Option>
    <Option name="VerbosityLevel" modified="No">Default</Option>
    <Option name="VarTransform" modified="Yes">N</Option>
    <Option name="H" modified="Yes">False</Option>
    <Option name="CreateMVAPdfs" modified="No">False</Option>
    <Option name="IgnoreNegWeightsInTraining" modified="No">False</Option>
    <Option name="TrainingMethod" modified="No">BP</Option>
    <Option name="LearningRate" modified="No">2.000000e-02</Option>
    <Option name="DecayRate" modified="No">1.000000e-02</Option>
    <Option name="TestRate" modified="Yes">5</Option>
    <Option name="EpochMonitoring" modified="No">False</Option>
    <Option name="Sampling" modified="No">1.000000e+00</Option>
    <Option name="SamplingEpoch" modified="No">1.000000e+00</Option>
    <Option name="SamplingImportance" modified="No">1.000000e+00</Option>
    <Option name="SamplingTraining" modified="No">True</Option>
    <Option name="SamplingTesting" modified="No">False</Option>
    <Option name="ResetStep" modified="No">50</Option>
    <Option name="Tau" modified="No">3.000000e+00</Option>
    <Option name="BPMode" modified="No">sequential</Option>
    <Option name="BatchSize" modified="No">-1</Option>
    <Option name="ConvergenceImprove" modified="No">1.000000e-30</Option>
    <Option name="ConvergenceTests" modified="No">-1</Option>
    <Option name="UseRegulator" modified="Yes">False</Option>
    <Option name="UpdateLimit" modified="No">10000</Option>
    <Option name="CalculateErrors" modified="No">False</Option>
    <Option name="WeightRange" modified="No">1.000000e+00</Option>
  </Options>
  <Variables NVar="21">
    <Variable VarIndex="0" Expression="mjj" Label="mjj" Title="mjj" Unit="" Internal="mjj" Type="F" Min="1.61155586e+01" Max="6.79967285e+03"/>
    <Variable VarIndex="1" Expression="Ctot" Label="Ctot" Title="Ctot" Unit="" Internal="Ctot" Type="F" Min="-6.61084890e+00" Max="3.72547913e+01"/>
    <Variable VarIndex="2" Expression="detajj" Label="detajj" Title="detajj" Unit="" Internal="detajj" Type="F" Min="2.22044605e-16" Max="9.08398438e+00"/>
    <Variable VarIndex="3" Expression="drll" Label="drll" Title="drll" Unit="" Internal="drll" Type="F" Min="1.54408091e-03" Max="5.55649614e+00"/>
    <Variable VarIndex="4" Expression="jet1eta" Label="jet1eta" Title="jet1eta" Unit="" Internal="jet1eta" Type="F" Min="-4.69531250e+00" Max="4.68750000e+00"/>
    <Variable VarIndex="5" Expression="jet2eta" Label="jet2eta" Title="jet2eta" Unit="" Internal="jet2eta" Type="F" Min="-4.69531250e+00" Max="4.69921875e+00"/>
    <Variable VarIndex="6" Expression="PuppiMET_pt" Label="PuppiMET_pt" Title="PuppiMET_pt" Unit="" Internal="PuppiMET_pt" Type="F" Min="1.92685612e-02" Max="1.03858374e+03"/>
    <Variable VarIndex="7" Expression="PuppiMET_phi" Label="PuppiMET_phi" Title="PuppiMET_phi" Unit="" Internal="PuppiMET_phi" Type="F" Min="-3.14156079e+00" Max="3.14158773e+00"/>
    <Variable VarIndex="8" Expression="mth" Label="mth" Title="mth" Unit="" Internal="mth" Type="F" Min="0.00000000e+00" Max="9.65493591e+02"/>
    <Variable VarIndex="9" Expression="ptll" Label="ptll" Title="ptll" Unit="" Internal="ptll" Type="F" Min="1.25752196e-01" Max="1.18341199e+03"/>
    <Variable VarIndex="10" Expression="mlj_00" Label="mlj_00" Title="mlj_00" Unit="" Internal="mlj_00" Type="F" Min="3.69394720e-01" Max="3.12695532e+03"/>
    <Variable VarIndex="11" Expression="mlj_01" Label="mlj_01" Title="mlj_01" Unit="" Internal="mlj_01" Type="F" Min="3.45591038e-01" Max="2.81649072e+03"/>
    <Variable VarIndex="12" Expression="mlj_10" Label="mlj_10" Title="mlj_10" Unit="" Internal="mlj_10" Type="F" Min="5.11081629e-02" Max="3.03362598e+03"/>
    <Variable VarIndex="13" Expression="mlj_11" Label="mlj_11" Title="mlj_11" Unit="" Internal="mlj_11" Type="F" Min="8.69891346e-02" Max="2.59370117e+03"/>
    <Variable VarIndex="14" Expression="mll" Label="mll" Title="mll" Unit="" Internal="mll" Type="F" Min="4.55211140e-02" Max="1.59242444e+03"/>
    <Variable VarIndex="15" Expression="btagDeepFlavB" Label="btagDeepFlavB" Title="btagDeepFlavB" Unit="" Internal="btagDeepFlavB" Type="F" Min="1.15489960e-03" Max="9.99511719e-01"/>
    <Variable VarIndex="16" Expression="btagDeepFlavB_1" Label="btagDeepFlavB_1" Title="btagDeepFlavB_1" Unit="" Internal="btagDeepFlavB_1" Type="F" Min="1.13677979e-03" Max="9.99511719e-01"/>
    <Variable VarIndex="17" Expression="D_VBF_QCD" Label="D_VBF_QCD" Title="D_VBF_QCD" Unit="" Internal="D_VBF_QCD" Type="F" Min="8.89368439e-20" Max="1.00000000e+00"/>
    <Variable VarIndex="18" Expression="D_VBF_VH" Label="D_VBF_VH" Title="D_VBF_VH" Unit="" Internal="D_VBF_VH" Type="F" Min="1.19719260e-28" Max="1.00000000e+00"/>
    <Variable VarIndex="19" Expression="D_QCD_VH" Label="D_QCD_VH" Title="D_QCD_VH" Unit="" Internal="D_QCD_VH" Type="F" Min="0.00000000e+00" Max="1.00000000e+00"/>
    <Variable VarIndex="20" Expression="D_VBF_DY" Label="D_VBF_DY" Title="D_VBF_DY" Unit="" Internal="D_VBF_DY" Type="F" Min="4.86985755e-07" Max="9.99906421e-01"/>
  </Variables>
  <Spectators NSpec="0"/>
  <Classes NClass="2">
    <Class Name="Signal" Index="0"/>
    <Class Name="Background" Index="1"/>
  </Classes>
  <Transformations NTransformations="1">
    <Transform Name="Normalize">
      <Selection>
        <Input NInputs="21">
          <Input Type="Variable" Label="mjj" Expression="mjj"/>
          <Input Type="Variable" Label="Ctot" Expression="Ctot"/>
          <Input Type="Variable" Label="detajj" Expression="detajj"/>
          <Input Type="Variable" Label="drll" Expression="drll"/>
          <Input Type="Variable" Label="jet1eta" Expression="jet1eta"/>
          <Input Type="Variable" Label="jet2eta" Expression="jet2eta"/>
          <Input Type="Variable" Label="PuppiMET_pt" Expression="PuppiMET_pt"/>
          <Input Type="Variable" Label="PuppiMET_phi" Expression="PuppiMET_phi"/>
          <Input Type="Variable" Label="mth" Expression="mth"/>
          <Input Type="Variable" Label="ptll" Expression="ptll"/>
          <Input Type="Variable" Label="mlj_00" Expression="mlj_00"/>
          <Input Type="Variable" Label="mlj_01" Expression="mlj_01"/>
          <Input Type="Variable" Label="mlj_10" Expression="mlj_10"/>
          <Input Type="Variable" Label="mlj_11" Expression="mlj_11"/>
          <Input Type="Variable" Label="mll" Expression="mll"/>
          <Input Type="Variable" Label="btagDeepFlavB" Expression="btagDeepFlavB"/>
          <Input Type="Variable" Label="btagDeepFlavB_1" Expression="btagDeepFlavB_1"/>
          <Input Type="Variable" Label="D_VBF_QCD" Expression="D_VBF_QCD"/>
          <Input Type="Variable" Label="D_VBF_VH" Expression="D_VBF_VH"/>
          <Input Type="Variable" Label="D_QCD_VH" Expression="D_QCD_VH"/>
          <Input Type="Variable" Label="D_VBF_DY" Expression="D_VBF_DY"/>
        </Input>
        <Output NOutputs="21">
          <Output Type="Variable" Label="mjj" Expression="mjj"/>
          <Output Type="Variable" Label="Ctot" Expression="Ctot"/>
          <Output Type="Variable" Label="detajj" Expression="detajj"/>
          <Output Type="Variable" Label="drll" Expression="drll"/>
          <Output Type="Variable" Label="jet1eta" Expression="jet1eta"/>
          <Output Type="Variable" Label="jet2eta" Expression="jet2eta"/>
          <Output Type="Variable" Label="PuppiMET_pt" Expression="PuppiMET_pt"/>
          <Output Type="Variable" Label="PuppiMET_phi" Expression="PuppiMET_phi"/>
          <Output Type="Variable" Label="mth" Expression="mth"/>
          <Output Type="Variable" Label="ptll" Expression="ptll"/>
          <Output Type="Variable" Label="mlj_00" Expression="mlj_00"/>
          <Output Type="Variable" Label="mlj_01" Expression="mlj_01"/>
          <Output Type="Variable" Label="mlj_10" Expression="mlj_10"/>
          <Output Type="Variable" Label="mlj_11" Expression="mlj_11"/>
          <Output Type="Variable" Label="mll" Expression="mll"/>
          <Output Type="Variable" Label="btagDeepFlavB" Expression="btagDeepFlavB"/>
          <Output Type="Variable" Label="btagDeepFlavB_1" Expression="btagDeepFlavB_1"/>
          <Output Type="Variable" Label="D_VBF_QCD" Expression="D_VBF_QCD"/>
          <Output Type="Variable" Label="D_VBF_VH" Expression="D_VBF_VH"/>
          <Output Type="Variable" Label="D_QCD_VH" Expression="D_QCD_VH"/>
          <Output Type="Variable" Label="D_VBF_DY" Expression="D_VBF_DY"/>
        </Output>
      </Selection>
      <Class ClassIndex="0">
        <Ranges>
          <Range Index="0" Min="1.6115558624267578e+01" Max="6.7996728515625000e+03"/>
          <Range Index="1" Min="-6.6108489036560059e+00" Max="1.0216946601867676e+01"/>
          <Range Index="2" Min="2.4414062500000000e-04" Max="9.0839843750000000e+00"/>
          <Range Index="3" Min="5.8948909863829613e-03" Max="4.3878779411315918e+00"/>
          <Range Index="4" Min="-4.6943359375000000e+00" Max="4.6875000000000000e+00"/>
          <Range Index="5" Min="-4.6953125000000000e+00" Max="4.6943359375000000e+00"/>
          <Range Index="6" Min="1.4600019156932831e-01" Max="1.0385837402343750e+03"/>
          <Range Index="7" Min="-3.1415607929229736e+00" Max="3.1414563655853271e+00"/>
          <Range Index="8" Min="0.0000000000000000e+00" Max="4.4089022827148438e+02"/>
          <Range Index="9" Min="8.5112774372100830e-01" Max="1.0284223632812500e+03"/>
          <Range Index="10" Min="4.2707765102386475e-01" Max="2.7730502929687500e+03"/>
          <Range Index="11" Min="3.4559103846549988e-01" Max="2.8164907226562500e+03"/>
          <Range Index="12" Min="5.1108162850141525e-02" Max="2.5858312988281250e+03"/>
          <Range Index="13" Min="8.9870862662792206e-02" Max="2.2969812011718750e+03"/>
          <Range Index="14" Min="3.3256614208221436e-01" Max="2.9451306152343750e+02"/>
          <Range Index="15" Min="1.1978149414062500e-03" Max="9.9951171875000000e-01"/>
          <Range Index="16" Min="1.1949539184570312e-03" Max="9.9951171875000000e-01"/>
          <Range Index="17" Min="2.9703951294089356e-14" Max="1.0000000000000000e+00"/>
          <Range Index="18" Min="6.4525824375638926e-23" Max="1.0000000000000000e+00"/>
          <Range Index="19" Min="0.0000000000000000e+00" Max="1.0000000000000000e+00"/>
          <Range Index="20" Min="9.6509056675131433e-06" Max="9.9990642070770264e-01"/>
        </Ranges>
      </Class>
      <Class ClassIndex="1">
        <Ranges>
          <Range Index="0" Min="1.6461875915527344e+01" Max="5.6595014648437500e+03"/>
          <Range Index="1" Min="-5.1571192741394043e+00" Max="3.7254791259765625e+01"/>
          <Range Index="2" Min="2.2204460492503131e-16" Max="8.9365234375000000e+00"/>
          <Range Index="3" Min="1.5440809074789286e-03" Max="5.5564961433410645e+00"/>
          <Range Index="4" Min="-4.6953125000000000e+00" Max="4.6787109375000000e+00"/>
          <Range Index="5" Min="-4.6894531250000000e+00" Max="4.6992187500000000e+00"/>
          <Range Index="6" Min="1.9268561154603958e-02" Max="9.4243164062500000e+02"/>
          <Range Index="7" Min="-3.1415514945983887e+00" Max="3.1415877342224121e+00"/>
          <Range Index="8" Min="0.0000000000000000e+00" Max="9.6549359130859375e+02"/>
          <Range Index="9" Min="1.2575219571590424e-01" Max="1.1834119873046875e+03"/>
          <Range Index="10" Min="3.6939471960067749e-01" Max="3.1269553222656250e+03"/>
          <Range Index="11" Min="9.6731454133987427e-01" Max="2.4848090820312500e+03"/>
          <Range Index="12" Min="8.2511723041534424e-02" Max="3.0336259765625000e+03"/>
          <Range Index="13" Min="8.6989134550094604e-02" Max="2.5937011718750000e+03"/>
          <Range Index="14" Min="4.5521114021539688e-02" Max="1.5924244384765625e+03"/>
          <Range Index="15" Min="1.1548995971679688e-03" Max="9.9951171875000000e-01"/>
          <Range Index="16" Min="1.1367797851562500e-03" Max="9.9951171875000000e-01"/>
          <Range Index="17" Min="8.8936843874567643e-20" Max="9.9999976158142090e-01"/>
          <Range Index="18" Min="1.1971925997994833e-28" Max="1.0000000000000000e+00"/>
          <Range Index="19" Min="0.0000000000000000e+00" Max="1.0000000000000000e+00"/>
          <Range Index="20" Min="4.8698575483285822e-07" Max="9.9970722198486328e-01"/>
        </Ranges>
      </Class>
      <Class ClassIndex="2">
        <Ranges>
          <Range Index="0" Min="1.6115558624267578e+01" Max="6.7996728515625000e+03"/>
          <Range Index="1" Min="-6.6108489036560059e+00" Max="3.7254791259765625e+01"/>
          <Range Index="2" Min="2.2204460492503131e-16" Max="9.0839843750000000e+00"/>
          <Range Index="3" Min="1.5440809074789286e-03" Max="5.5564961433410645e+00"/>
          <Range Index="4" Min="-4.6953125000000000e+00" Max="4.6875000000000000e+00"/>
          <Range Index="5" Min="-4.6953125000000000e+00" Max="4.6992187500000000e+00"/>
          <Range Index="6" Min="1.9268561154603958e-02" Max="1.0385837402343750e+03"/>
          <Range Index="7" Min="-3.1415607929229736e+00" Max="3.1415877342224121e+00"/>
          <Range Index="8" Min="0.0000000000000000e+00" Max="9.6549359130859375e+02"/>
          <Range Index="9" Min="1.2575219571590424e-01" Max="1.1834119873046875e+03"/>
          <Range Index="10" Min="3.6939471960067749e-01" Max="3.1269553222656250e+03"/>
          <Range Index="11" Min="3.4559103846549988e-01" Max="2.8164907226562500e+03"/>
          <Range Index="12" Min="5.1108162850141525e-02" Max="3.0336259765625000e+03"/>
          <Range Index="13" Min="8.6989134550094604e-02" Max="2.5937011718750000e+03"/>
          <Range Index="14" Min="4.5521114021539688e-02" Max="1.5924244384765625e+03"/>
          <Range Index="15" Min="1.1548995971679688e-03" Max="9.9951171875000000e-01"/>
          <Range Index="16" Min="1.1367797851562500e-03" Max="9.9951171875000000e-01"/>
          <Range Index="17" Min="8.8936843874567643e-20" Max="1.0000000000000000e+00"/>
          <Range Index="18" Min="1.1971925997994833e-28" Max="1.0000000000000000e+00"/>
          <Range Index="19" Min="0.0000000000000000e+00" Max="1.0000000000000000e+00"/>
          <Range Index="20" Min="4.8698575483285822e-07" Max="9.9990642070770264e-01"/>
        </Ranges>
      </Class>
    </Transform>
  </Transformations>
  <MVAPdfs/>
  <Weights>
    <Layout NLayers="3">
      <Layer Index="0" NNeurons="22">
        <Neuron NSynapses="26">
          2.8926494876357691e+00 2.2994089334185133e+00 3.5118526747027795e-01 3.6691200053356710e-01 -2.0569643822655426e+00 -1.8715462109390042e+00 -5.1214549442246471e-01 2.4163488939937281e+00 -4.9526776386797816e-01 -3.2029620128654290e+00 -2.3420360866055363e+00 -4.2450843930808796e-01 -1.3166164932016771e+00 -4.4934187699053169e-01 -3.1613658935822481e-01 1.1617108117625232e+00 -2.8058715461310553e+00 -1.1333700077304900e+00 9.5538236163117618e-01 8.2707885403326209e-01 1.2257233356691229e-01 2.2842380264296844e-01 -3.1902035857307977e-02 -2.3951267015916827e-01 -4.4742484772397567e-01 -4.6944975649726278e-01 
        </Neuron>
        <Neuron NSynapses="26">
          -4.4501562654064203e-01 -6.3943474421920088e-01 -1.1973847969258573e+00 -1.1762400698493853e+00 1.1409987583647956e+00 1.2479711482577567e+00 -5.2777885576203509e-01 3.2934848431139313e-01 -1.1833413479299744e+00 1.7743198005784413e+00 4.6542935447949013e-01 9.2044494664008603e-01 -9.6034696146754184e-01 9.8661102196591366e-01 -5.0151740133385792e-01 9.8781373557985852e-01 2.3931789224398061e+00 3.9071860179062274e+00 -1.2550469862485900e+00 -1.3073057794308565e+00 8.3403546459881162e-01 -1.8288117301761031e-01 1.6805899122797947e+00 1.8412364092632598e+00 1.2599055345075052e+00 2.5025227035957687e+00 
        </Neuron>
        <Neuron NSynapses="26">
          -4.0790370779931289e+00 1.9603529259879637e+00 3.2044423044411341e-01 -1.8486884204804261e+00 -1.2943204629910416e+00 -1.8110320826372688e+00 6.7983874093793140e-01 7.8389536878883603e-01 -5.5746123771630052e-01 8.4116773922545596e-01 -1.3149770140243475e-01 1.1380221831791495e+00 1.8053376500600247e+00 -5.5876454837064227e-01 -1.7459227230591207e-01 -8.8755428671771985e-01 1.4489311880001448e+00 -3.3469444327391842e+00 -4.3822022023259154e-02 -3.8641880041744331e-01 2.4163901483803199e-01 1.2361198847163561e+00 1.0828172440321795e+00 -7.5448338306308704e-01 -4.8281539747624135e-02 -1.5205577488157678e+00 
        </Neuron>
        <Neuron NSynapses="26">
          1.4893167934114144e-02 7.3007273921389038e-01 4.0124940081573784e-01 2.4238735846067581e+00 -4.4778249702428718e-01 -8.7343449126496275e-01 -2.8796014923989239e+00 8.0164834761661929e-01 2.1446935518807768e+00 -1.8696778229614284e+00 -3.8871548200831310e+00 -1.8969435154584491e+00 -6.7444796035650822e-01 -7.5258456145056585e-01 6.2950165723374873e-01 -4.1302382697613966e+00 -1.1960680174394549e+00 6.1444647589432844e-01 7.9277815072240732e-01 -9.1965782212441483e-01 -4.2201670976880618e-01 5.2898477734018268e-01 -1.4005895250448577e+00 -1.4052643331650057e+00 -4.1137480957017092e-01 -7.6864016558126691e-01 
        </Neuron>
        <Neuron NSynapses="26">
          -4.0162631993065390e-01 1.4965134912084506e+00 4.5240613829059501e-02 -1.8292716568849057e+00 -1.5893203357399036e-01 3.8952837538743512e-01 2.5078870037884499e-01 1.7232127797611943e-01 7.1437405127295062e-01 5.8784354700110375e-01 -2.0933944369030968e-02 1.3493621477682674e+00 1.3463332267026873e+00 -1.9895201267667986e+00 -9.9593944204569747e-03 -4.0847167120242228e-01 -4.5567790352080792e-02 1.9418519990997080e-01 1.1384240882939874e-01 -9.5398448027807191e-03 -2.3985327588328778e+00 -7.5368897231043119e-01 5.2854310159513795e-01 -4.8431066236176379e-01 -1.4127839532586255e+00 1.2161172469127042e+00 
        </Neuron>
        <Neuron NSynapses="26">
          4.5793352873303372e-01 -1.9093642683691845e+00 -2.1617898871833567e-02 -1.8746724245619941e+00 -6.9839085935344242e-02 8.8914873686393459e-01 1.5631313085767470e-01 -1.5574452588389751e+00 7.1988024772818882e-01 6.9704884930753508e-01 -1.5162039764818830e-01 5.8479717575049106e-01 -6.5643524930761377e-01 -1.4049537096620750e+00 1.0047041254489495e-02 -4.4243520703846040e-01 1.6551554060079854e-01 -5.4420838464976820e-02 -2.5279409790238717e-02 2.1909179312921692e-01 -3.0530646995789308e+00 6.9484901872814020e-01 1.0642074515627591e+00 -7.4220388047338448e-01 3.0810870537007201e-01 4.8210155679075778e-01 
        </Neuron>
        <Neuron NSynapses="26">
          6.5975352856062167e-02 4.0020911284167149e-01 -1.2440979785535726e-01 1.3891661875053634e+00 1.0741819009416043e+00 2.9781873429350764e-01 1.5615797541783039e+00 1.1010442579061206e+00 1.7893056965071803e+00 -1.7907224467975960e+00 -2.8820787636111594e-01 1.8625695861708966e-02 -7.8215586884863386e-01 2.5388897510291925e-01 3.7623807320684338e-01 9.0773761990941892e-01 3.0698700788833515e-02 1.0814292318556720e+00 2.5008127097476534e+00 -4.2716233382136846e+00 -1.4414553933397534e-01 3.5640475752620839e-02 8.6739099248420470e-01 -1.9953703320649423e+00 -8.6068489063181164e-01 7.5386040354195027e-01 
        </Neuron>
        <Neuron NSynapses="26">
          1.8364633435201169e-01 -9.7848133417663175e-01 -3.7081906488918029e-02 1.3438628290660320e-01 2.5514460803790384e-01 1.5222427262134448e+00 -3.1668262082856502e-01 -2.4683289756408416e-01 -9.7890959627295691e-03 -2.1415844828304598e-01 1.1997626738597181e-02 6.5062325991202119e-01 1.6519541892360151e-01 1.1641968439302172e-01 -4.4113773404452376e-02 6.7924950906978332e-01 2.5052216962892337e-02 1.7509766107696850e-01 -5.0950121692110321e-02 2.5892901806873096e-02 -1.3800807685819791e-01 -1.2977550067620114e+00 5.4286488086438678e-01 1.2163834952887641e-01 -4.1255985783677018e-01 -1.1534560200329057e-01 
        </Neuron>
        <Neuron NSynapses="26">
          1.2562673603352472e+00 1.1800916140554918e+00 -1.8240229131911003e+00 1.6987929481604491e-01 -2.1370202738945587e-01 -1.3490591064119222e+00 4.7116433054754250e+00 1.7518546579778280e+00 1.8978089639193532e+00 -1.1838863825329475e-01 -7.0925380185961184e-01 -2.3030819466446966e+00 -5.2378261426023687e-01 -1.1756499056153766e+00 6.7495270318937883e-01 3.0382908777077753e-02 8.0112409391432049e+00 -1.4121338808481483e+00 8.5486684289355903e+00 8.4877974014583257e-01 -3.3728092615231514e-01 -1.8482487629996800e+00 1.1077638559758631e+00 -1.4489722211140563e-01 1.9009554130447215e+00 -3.3784848644284331e+00 
        </Neuron>
        <Neuron NSynapses="26">
          1.0388054164596690e+00 -1.4550870406105429e+00 1.8430680511495404e-01 -3.8897667258288471e-01 -1.2466121657973297e+00 -1.6570371506808479e+00 -1.9030144168208933e+00 -1.8820830151457896e-01 -8.9970310581143464e-01 -1.3166462587557008e+00 -2.4541326207873282e+00 -3.9176248236050421e-01 -9.8276549891278620e-01 -1.1513645612986754e+00 -7.1222783800063694e-01 -2.4656387783330294e-01 -8.6201355520309952e-01 -1.2956078066202426e+00 -2.9815949933952610e+00 2.0834775028956027e+00 1.3111233158972071e+00 -1.1323470871276966e+00 -1.9401662370946509e+00 -1.2137767065706087e+00 -8.8019134112209674e-01 -5.0939754200215359e-01 
        </Neuron>
        <Neuron NSynapses="26">
          -5.6336829900447982e-01 1.1828551061731767e+00 8.3184285490583445e+00 -6.8418048596464975e-01 9.6655647699957681e-01 -8.5513768721234085e-01 -1.7345229079244837e+00 1.5100538891070883e+00 1.3555437878435259e+00 1.0643727425190372e+00 -5.3591245576948099e-01 2.1676799899572619e-01 1.2536179232724183e+00 1.6727846653880396e+00 5.8152991882053851e-01 3.3986806200819647e-01 1.6853944009032451e+00 1.5168110976785434e+00 1.4826699863580259e-01 1.2613536683470312e+00 1.1788956148560685e+00 -4.0795832366550733e-01 -1.7752173406016354e+00 -7.0486329867364783e-01 -3.5320844836285175e+00 1.7099445902414998e-01 
        </Neuron>
        <Neuron NSynapses="26">
          -1.7073151247174860e+00 1.8718402722460543e+00 4.9824856282068577e+00 4.1139182621077491e-01 -1.0921054363742624e+00 6.7925578139307030e-01 -1.1298584973129706e+00 8.2555605323109604e-01 4.3328401303221736e-01 7.1874518668508292e-01 -1.4805940360506567e-01 1.9285763596506359e-02 -1.6966240747942678e+00 -5.9579720472332931e-01 2.2739500197610005e-01 -5.3361072227624495e-01 1.7082178477698640e+00 5.7976478687274924e-01 3.6930909944819024e-01 4.8440203882313715e-01 -1.0031065785809872e+00 -1.9821876349435832e+00 -1.6141308721439931e+00 -1.5500165950759976e+00 2.4258612988777753e-01 7.8285404892825830e-02 
        </Neuron>
        <Neuron NSynapses="26">
          -4.0871178639031811e+00 2.3292523200634614e+00 -1.4960196984150327e+00 -7.6024659387724713e-01 2.6280566946200992e+00 -1.6831677412153563e+00 1.7490963456622985e+00 1.4807345308356401e+00 -7.1002235483536236e-02 -4.6963947729401212e-01 -1.6757425591005448e-01 -1.7892489639145872e+00 8.8875210930611925e-01 1.2756281043063962e+00 6.4657089377644694e-01 1.4481812477543550e+00 3.6198137202740477e-01 2.1014812982142028e+00 -6.7180126214454816e-01 7.9587838401074473e-01 -2.1733453320100588e-01 -1.0907079710062897e+00 6.6446312458559531e-02 1.5040968265929799e+00 2.0592737765786620e+00 3.2294204502711477e+00 
        </Neuron>
        <Neuron NSynapses="26">
          -1.1811464768032216e+00 6.9589171612857137e-01 -8.3928723894176638e-01 -8.1808820947748759e-02 2.8038790848235791e+00 -1.7223695242219001e+00 4.8318842023743097e-01 -8.6977358716204156e-01 -8.7841099154027569e-01 -4.6164895019425189e-01 -8.7795975227732315e-01 -1.6517501145541318e+00 1.5570070815420285e+00 7.2424089660477786e-01 2.4082268101136295e-01 -4.8957447398382603e-01 -3.7427086754129268e-01 -2.3725432256690987e-01 -8.4697697213597878e-01 7.9759270962346507e-01 4.9614681749134787e-01 -7.1375305815723722e-01 5.1552692114539556e-01 -1.4351863295567651e+00 3.3237046738464149e-01 -7.4966168149042223e-02 
        </Neuron>
        <Neuron NSynapses="26">
          3.8678558671205123e+00 -1.0453791804832380e+00 -7.5526599293068006e+00 1.6141239937080953e+00 -2.1995462356250597e+00 -2.0223355349443990e+00 -7.9431251772598699e-01 -6.7558079663446680e-01 -4.1549553474379106e+00 3.0507853368994229e+00 -3.6681825931638499e+00 4.4907945224355261e-02 -5.6774257932502785e-02 2.1278462573666634e+00 1.6073993475694667e+01 -2.1572597027100140e-01 -7.6737135714442832e+00 -3.5494164693480301e+00 9.5409910238240521e+00 -2.3849452662193688e-01 -1.8016801021246578e+00 7.3238813376852796e-01 4.0533560832373372e-01 9.9769509738683482e-01 7.2115814747934504e-01 4.9778100072781900e-01 
        </Neuron>
        <Neuron NSynapses="26">
          3.2369003416103115e-01 3.8094606500467137e-01 -1.0997685403302631e+00 9.4815238932213025e-02 -6.8228358293621755e-02 4.0907317426265105e-01 -2.8250502362206709e-01 1.3887262230922430e+00 -5.5421953213401876e-01 4.5345991912513449e-02 5.7093707022360518e-01 9.7380758903687925e-01 -3.7163144125054526e-01 -1.6784787345488199e+00 1.5649669131031188e-01 -1.7533144478853879e+00 -3.7080658438194747e-01 1.9465372480602836e-01 1.5680194102423753e-01 1.8732636484684864e-01 -2.0083390627156689e-01 -1.6760976321138616e+00 1.7272121551461425e-01 -1.5685334134442306e+00 -2.2016403973824730e-01 8.3787176219899751e-01 
        </Neuron>
        <Neuron NSynapses="26">
          1.2537736107621171e+00 3.1743768039912956e-01 3.5078028445756762e-02 -1.0572722392897456e+00 -7.3401739605613647e-01 -1.3235297702448293e-01 -1.0368689862824330e+00 -1.2332237405139503e+00 -3.8072098931794524e-01 -7.4940911752051853e-01 3.1792003674295910e-01 -1.0586756710866836e+00 -1.5910697114026453e+00 3.2872028595545794e-01 1.2208026882175886e-01 -1.4597830885378138e+00 2.2269603901661900e-02 9.6541429681249194e-02 3.8874155094277063e-01 -8.5544400606591978e-02 7.6866346499386062e-01 -6.7036758690842890e-01 -2.0790500104911382e+00 2.1479937686250436e-01 -1.8304836408840288e+00 2.2379701612702976e-01 
        </Neuron>
        <Neuron NSynapses="26">
          4.1519441596404694e-01 2.0572306899637202e-01 -5.1859074947502005e-02 1.4100209707903162e+00 1.2297570697699838e+00 -4.1746870603132996e-01 -5.1070998540652690e-01 -9.3723302608391135e-01 1.0376955901009315e+00 -7.0040840432032647e-01 -5.8492512956310949e-01 1.8298908938502465e+00 1.1154583332834522e+00 -1.6679472344236521e-01 -1.7824801127284986e-02 -4.6603612825047130e-01 1.2367273808451083e-01 3.8081818779188552e+00 7.5492407621240723e-02 9.5993650688948917e-01 -8.0276840992430498e-01 7.4730859692538031e-03 6.9489988917578216e-01 3.8686620641833164e-01 -7.3272849790954742e-01 1.7607566638675753e-01 
        </Neuron>
        <Neuron NSynapses="26">
          5.5756597033035864e-02 1.2692178728244219e+00 1.3132832285087540e-03 -1.3014918818278345e-01 -1.0777427081172173e+00 1.3105125674788967e+00 -6.0938585378377852e-01 -6.5885807591853962e-01 -5.9072195084705215e-01 6.3546148122088897e-01 3.1872665990927964e+00 2.3370722727379567e+00 -1.3404155955611923e+00 -7.2175483090007575e-01 -2.7027661077898761e-03 2.0317178268093358e-01 -1.4658611705168481e-01 2.4436696329607202e-01 -1.4990015262936804e-01 1.5395079824044910e-01 -5.0423295642346773e-02 -3.1165705628099266e-01 6.5736902301720623e-01 -1.3192980919659703e+00 -7.0660226313503305e-01 -8.8155525911880195e-01 
        </Neuron>
        <Neuron NSynapses="26">
          1.2949078285256821e-01 -1.2169946850618287e+00 -2.6627394279028754e-01 3.7703025623228213e-02 2.6681827469625785e-01 3.1211246671276521e-01 -2.7149810891118862e+00 1.0875802200274720e+00 8.7070394924189565e-01 1.5996350876026135e+00 -4.6415996518715250e+00 -9.7327240434266438e-01 1.6543679525857187e+00 -2.9444796972090388e+00 1.6121649379561881e-01 -1.0537329287134081e+00 5.3476937560221226e-02 -7.4935366292224415e-02 2.1018062161215278e-01 1.4378208718539556e-01 -2.8829128765065187e-01 -1.2576629108729942e+00 -9.6596253170042201e-01 7.0336211019971751e-01 -5.0013592014105912e-01 -7.2219226435351125e-01 
        </Neuron>
        <Neuron NSynapses="26">
          7.5068270281591554e-01 -1.9327596016299506e+00 -3.1423246389978154e-01 -9.2570193781663335e-01 1.0764572953072720e+00 7.3346342940736542e-01 5.6272521638405892e-01 1.0993227877411045e+00 8.5168492930850759e-01 -6.0992267942437794e-01 5.8961417989415710e-01 -1.6616093586392550e-01 4.4535145640448842e-01 -2.4850259010358436e-01 3.5831069435917834e-01 -1.1061791483515319e-01 -7.0859517595774218e-02 -1.6283891406265499e-02 2.4623517217711358e-01 2.7584839442421493e-03 1.2658444942968916e+00 -1.6027645766667606e-01 -1.1188763946796760e+00 -1.4997597573676291e+00 1.0281382912154324e+00 -6.7869809489860256e-01 
        </Neuron>
        <Neuron NSynapses="26">
          -7.9006950036986356e-01 -1.9737342395646225e+00 1.6942693409210972e+00 2.6613893886478621e+00 7.9912199643858717e-01 1.3423277144389512e+00 -1.5960478397095788e+00 -1.5679909396862495e+00 -2.5540550317521729e+00 7.5030083063648145e-01 -2.6743684366422000e+00 -6.1418392847902359e-01 1.0831062370612108e+00 -1.6943579339349939e+00 1.5376784052938939e+01 1.0032287201652375e+00 2.0337709965253858e+00 1.8426085424193916e+00 1.3965618579505243e+01 -4.1472950511253198e-01 -1.4349639269088748e+00 -2.6523377275839617e+00 -9.6097232334263327e-01 -4.4095541430421076e-01 1.1730814640500928e+00 1.6907863035040511e+00 
        </Neuron>
      </Layer>
      <Layer Index="1" NNeurons="27">
        <Neuron NSynapses="1">
          -1.1735079618349311e+00 
        </Neuron>
        <Neuron NSynapses="1">
          1.9760434345915987e+00 
        </Neuron>
        <Neuron NSynapses="1">
          2.2322873230011986e+00 
        </Neuron>
        <Neuron NSynapses="1">
          -3.5934232288266049e-01 
        </Neuron>
        <Neuron NSynapses="1">
          1.4817552789997032e-01 
        </Neuron>
        <Neuron NSynapses="1">
          -1.8691819916077341e+00 
        </Neuron>
        <Neuron NSynapses="1">
          3.2564454091156914e-01 
        </Neuron>
        <Neuron NSynapses="1">
          -2.9001039309332599e-01 
        </Neuron>
        <Neuron NSynapses="1">
          9.4270086236352735e-01 
        </Neuron>
        <Neuron NSynapses="1">
          -1.0397562052536591e+00 
        </Neuron>
        <Neuron NSynapses="1">
          5.1882046274047966e-01 
        </Neuron>
        <Neuron NSynapses="1">
          -2.7680375395457263e-01 
        </Neuron>
        <Neuron NSynapses="1">
          1.6505256942321411e-01 
        </Neuron>
        <Neuron NSynapses="1">
          -3.2620121992645318e-01 
        </Neuron>
        <Neuron NSynapses="1">
          -4.8842728386312286e+00 
        </Neuron>
        <Neuron NSynapses="1">
          -6.5761200874029735e-01 
        </Neuron>
        <Neuron NSynapses="1">
          8.5916665814311932e-01 
        </Neuron>
        <Neuron NSynapses="1">
          5.4538884600278081e-01 
        </Neuron>
        <Neuron NSynapses="1">
          -2.0398806729459031e+00 
        </Neuron>
        <Neuron NSynapses="1">
          7.2312829238221876e-01 
        </Neuron>
        <Neuron NSynapses="1">
          5.1342872673237783e-01 
        </Neuron>
        <Neuron NSynapses="1">
          -1.1147421105100905e+00 
        </Neuron>
        <Neuron NSynapses="1">
          2.5106087726445953e-01 
        </Neuron>
        <Neuron NSynapses="1">
          -6.5213190740847249e-01 
        </Neuron>
        <Neuron NSynapses="1">
          5.4865163810006701e-01 
        </Neuron>
        <Neuron NSynapses="1">
          -4.1847421131294921e-01 
        </Neuron>
        <Neuron NSynapses="1">
          -2.0916705771418749e+00 
        </Neuron>
      </Layer>
      <Layer Index="2" NNeurons="1">
        <Neuron NSynapses="0"/>
      </Layer>
    </Layout>
  </Weights>
</MethodSetup>
