<?xml version="1.0"?>
<MethodSetup Method="BDT::BDTG4C3">
  <GeneralInfo>
    <Info name="TMVA Release" value="4.2.1 [262657]"/>
    <Info name="ROOT Release" value="6.14/09 [396809]"/>
    <Info name="Creator" value="sblancof"/>
    <Info name="Date" value="Wed Jun  8 09:37:07 2022"/>
    <Info name="Host" value="Linux cmsbuild16.cern.ch 3.10.0-1062.4.1.el7.x86_64 #1 SMP Fri Oct 18 17:15:30 UTC 2019 x86_64 x86_64 x86_64 GNU/Linux"/>
    <Info name="Dir" value="/afs/cern.ch/work/s/sblancof/public/CMSSW_10_6_10/src/PlotsConfigurations/Configurations/WW/Full2016_v7/DNN"/>
    <Info name="Training events" value="329233"/>
    <Info name="TrainingTime" value="9.91901410e+01"/>
    <Info name="AnalysisType" value="Classification"/>
  </GeneralInfo>
  <Options>
    <Option name="V" modified="Yes">False</Option>
    <Option name="VerbosityLevel" modified="No">Default</Option>
    <Option name="VarTransform" modified="No">None</Option>
    <Option name="H" modified="Yes">False</Option>
    <Option name="CreateMVAPdfs" modified="No">False</Option>
    <Option name="IgnoreNegWeightsInTraining" modified="No">False</Option>
    <Option name="NTrees" modified="Yes">500</Option>
    <Option name="MaxDepth" modified="Yes">2</Option>
    <Option name="MinNodeSize" modified="Yes">1.5%</Option>
    <Option name="nCuts" modified="Yes">300</Option>
    <Option name="BoostType" modified="Yes">Grad</Option>
    <Option name="AdaBoostR2Loss" modified="No">quadratic</Option>
    <Option name="UseBaggedBoost" modified="Yes">True</Option>
    <Option name="Shrinkage" modified="Yes">5.000000e-02</Option>
    <Option name="AdaBoostBeta" modified="No">5.000000e-01</Option>
    <Option name="UseRandomisedTrees" modified="No">False</Option>
    <Option name="UseNvars" modified="No">5</Option>
    <Option name="UsePoissonNvars" modified="No">True</Option>
    <Option name="BaggedSampleFraction" modified="No">5.000000e-01</Option>
    <Option name="UseYesNoLeaf" modified="No">True</Option>
    <Option name="NegWeightTreatment" modified="No">pray</Option>
    <Option name="Css" modified="No">1.000000e+00</Option>
    <Option name="Cts_sb" modified="No">1.000000e+00</Option>
    <Option name="Ctb_ss" modified="No">1.000000e+00</Option>
    <Option name="Cbb" modified="No">1.000000e+00</Option>
    <Option name="NodePurityLimit" modified="No">5.000000e-01</Option>
    <Option name="SeparationType" modified="No">giniindex</Option>
    <Option name="RegressionLossFunctionBDTG" modified="No">huber</Option>
    <Option name="HuberQuantile" modified="No">7.000000e-01</Option>
    <Option name="DoBoostMonitor" modified="No">False</Option>
    <Option name="UseFisherCuts" modified="No">False</Option>
    <Option name="MinLinCorrForFisher" modified="No">8.000000e-01</Option>
    <Option name="UseExclusiveVars" modified="No">False</Option>
    <Option name="DoPreselection" modified="No">False</Option>
    <Option name="SigToBkgFraction" modified="No">1.000000e+00</Option>
    <Option name="PruneMethod" modified="No">nopruning</Option>
    <Option name="PruneStrength" modified="No">0.000000e+00</Option>
    <Option name="PruningValFraction" modified="No">5.000000e-01</Option>
    <Option name="SkipNormalization" modified="No">False</Option>
    <Option name="nEventsMin" modified="No">0</Option>
    <Option name="UseBaggedGrad" modified="No">False</Option>
    <Option name="GradBaggingFraction" modified="Yes">5.000000e-01</Option>
    <Option name="UseNTrainEvents" modified="No">0</Option>
    <Option name="NNodesMax" modified="No">0</Option>
  </Options>
  <Variables NVar="21">
    <Variable VarIndex="0" Expression="mjj" Label="mjj" Title="mjj" Unit="" Internal="mjj" Type="F" Min="1.61155586e+01" Max="6.79967285e+03"/>
    <Variable VarIndex="1" Expression="Ctot" Label="Ctot" Title="Ctot" Unit="" Internal="Ctot" Type="F" Min="-6.61084890e+00" Max="3.72547913e+01"/>
    <Variable VarIndex="2" Expression="detajj" Label="detajj" Title="detajj" Unit="" Internal="detajj" Type="F" Min="2.22044605e-16" Max="9.08398438e+00"/>
    <Variable VarIndex="3" Expression="drll" Label="drll" Title="drll" Unit="" Internal="drll" Type="F" Min="1.54408091e-03" Max="5.55649614e+00"/>
    <Variable VarIndex="4" Expression="jet1eta" Label="jet1eta" Title="jet1eta" Unit="" Internal="jet1eta" Type="F" Min="-4.69531250e+00" Max="4.68750000e+00"/>
    <Variable VarIndex="5" Expression="jet2eta" Label="jet2eta" Title="jet2eta" Unit="" Internal="jet2eta" Type="F" Min="-4.69531250e+00" Max="4.69921875e+00"/>
    <Variable VarIndex="6" Expression="PuppiMET_pt" Label="PuppiMET_pt" Title="PuppiMET_pt" Unit="" Internal="PuppiMET_pt" Type="F" Min="1.92685612e-02" Max="1.03858374e+03"/>
    <Variable VarIndex="7" Expression="PuppiMET_phi" Label="PuppiMET_phi" Title="PuppiMET_phi" Unit="" Internal="PuppiMET_phi" Type="F" Min="-3.14156079e+00" Max="3.14158773e+00"/>
    <Variable VarIndex="8" Expression="mth" Label="mth" Title="mth" Unit="" Internal="mth" Type="F" Min="0.00000000e+00" Max="9.65493591e+02"/>
    <Variable VarIndex="9" Expression="ptll" Label="ptll" Title="ptll" Unit="" Internal="ptll" Type="F" Min="1.25752196e-01" Max="1.18341199e+03"/>
    <Variable VarIndex="10" Expression="mlj_00" Label="mlj_00" Title="mlj_00" Unit="" Internal="mlj_00" Type="F" Min="3.69394720e-01" Max="3.12695532e+03"/>
    <Variable VarIndex="11" Expression="mlj_01" Label="mlj_01" Title="mlj_01" Unit="" Internal="mlj_01" Type="F" Min="3.45591038e-01" Max="2.81649072e+03"/>
    <Variable VarIndex="12" Expression="mlj_10" Label="mlj_10" Title="mlj_10" Unit="" Internal="mlj_10" Type="F" Min="5.11081629e-02" Max="3.03362598e+03"/>
    <Variable VarIndex="13" Expression="mlj_11" Label="mlj_11" Title="mlj_11" Unit="" Internal="mlj_11" Type="F" Min="8.69891346e-02" Max="2.59370117e+03"/>
    <Variable VarIndex="14" Expression="mll" Label="mll" Title="mll" Unit="" Internal="mll" Type="F" Min="4.55211140e-02" Max="1.59242444e+03"/>
    <Variable VarIndex="15" Expression="btagDeepFlavB" Label="btagDeepFlavB" Title="btagDeepFlavB" Unit="" Internal="btagDeepFlavB" Type="F" Min="1.15489960e-03" Max="9.99511719e-01"/>
    <Variable VarIndex="16" Expression="btagDeepFlavB_1" Label="btagDeepFlavB_1" Title="btagDeepFlavB_1" Unit="" Internal="btagDeepFlavB_1" Type="F" Min="1.13677979e-03" Max="9.99511719e-01"/>
    <Variable VarIndex="17" Expression="D_VBF_QCD" Label="D_VBF_QCD" Title="D_VBF_QCD" Unit="" Internal="D_VBF_QCD" Type="F" Min="8.89368439e-20" Max="1.00000000e+00"/>
    <Variable VarIndex="18" Expression="D_VBF_VH" Label="D_VBF_VH" Title="D_VBF_VH" Unit="" Internal="D_VBF_VH" Type="F" Min="1.19719260e-28" Max="1.00000000e+00"/>
    <Variable VarIndex="19" Expression="D_QCD_VH" Label="D_QCD_VH" Title="D_QCD_VH" Unit="" Internal="D_QCD_VH" Type="F" Min="0.00000000e+00" Max="1.00000000e+00"/>
    <Variable VarIndex="20" Expression="D_VBF_DY" Label="D_VBF_DY" Title="D_VBF_DY" Unit="" Internal="D_VBF_DY" Type="F" Min="4.86985755e-07" Max="9.99906421e-01"/>
  </Variables>
  <Spectators NSpec="0"/>
  <Classes NClass="2">
    <Class Name="Signal" Index="0"/>
    <Class Name="Background" Index="1"/>
  </Classes>
  <Transformations NTransformations="0"/>
  <MVAPdfs/>
  <Weights NTrees="500" AnalysisType="1">
    <BinaryTree type="DecisionTree" boostWeight="1.0000000000000000e+00" itree="0">
      <Node pos="s" depth="0" NCoef="0" IVar="18" Cut="9.9335545301437378e-01" cType="1" res="1.9104816019535065e-03" rms="4.9999636411666870e-01" purity="5.0191050767898560e-01" nType="0">
        <Node pos="l" depth="1" NCoef="0" IVar="14" Cut="6.3396526336669922e+01" cType="1" res="-3.1425580382347107e-01" rms="3.8890010118484497e-01" purity="1.8574416637420654e-01" nType="0">
          <Node pos="l" depth="2" NCoef="0" IVar="-1" Cut="0.0000000000000000e+00" cType="1" res="-7.8537659719586372e-03" rms="4.9379330873489380e-01" purity="4.2146235704421997e-01" nType="-99"/>
          <Node pos="r" depth="2" NCoef="0" IVar="-1" Cut="0.0000000000000000e+00" cType="1" res="-4.7003895044326782e-02" rms="1.7047989368438721e-01" purity="2.9961060732603073e-02" nType="-99"/>
        </Node>
        <Node pos="r" depth="1" NCoef="0" IVar="20" Cut="5.6468355655670166e-01" cType="1" res="3.4761667251586914e-01" rms="3.5939207673072815e-01" purity="8.4761667251586914e-01" nType="0">
          <Node pos="l" depth="2" NCoef="0" IVar="-1" Cut="0.0000000000000000e+00" cType="1" res="8.2472097128629684e-03" rms="4.9315145611763000e-01" purity="5.8247208595275879e-01" nType="-99"/>
          <Node pos="r" depth="2" NCoef="0" IVar="-1" Cut="0.0000000000000000e+00" cType="1" res="4.2387593537569046e-02" rms="2.6519653201103210e-01" purity="9.2387592792510986e-01" nType="-99"/>
        </Node>
      </Node>
    </BinaryTree>
    <BinaryTree type="DecisionTree" boostWeight="1.0000000000000000e+00" itree="1">
      <Node pos="s" depth="0" NCoef="0" IVar="18" Cut="9.9667775630950928e-01" cType="1" res="3.3688026014715433e-03" rms="4.8634150624275208e-01" purity="5.0350284576416016e-01" nType="0">
        <Node pos="l" depth="1" NCoef="0" IVar="3" Cut="1.3487907648086548e+00" cType="1" res="-2.9308569431304932e-01" rms="3.8881355524063110e-01" purity="1.9164900481700897e-01" nType="0">
          <Node pos="l" depth="2" NCoef="0" IVar="-1" Cut="0.0000000000000000e+00" cType="1" res="-2.2407718934118748e-03" rms="4.9824199080467224e-01" purity="4.7236603498458862e-01" nType="-99"/>
          <Node pos="r" depth="2" NCoef="0" IVar="-1" Cut="0.0000000000000000e+00" cType="1" res="-4.1861124336719513e-02" rms="2.3895804584026337e-01" purity="6.2265068292617798e-02" nType="-99"/>
        </Node>
        <Node pos="r" depth="1" NCoef="0" IVar="20" Cut="4.5180276036262512e-01" cType="1" res="3.3870247006416321e-01" rms="3.4815800189971924e-01" purity="8.5625541210174561e-01" nType="0">
          <Node pos="l" depth="2" NCoef="0" IVar="-1" Cut="0.0000000000000000e+00" cType="1" res="3.3280197530984879e-03" rms="4.9859917163848877e-01" purity="5.3740149736404419e-01" nType="-99"/>
          <Node pos="r" depth="2" NCoef="0" IVar="-1" Cut="0.0000000000000000e+00" cType="1" res="3.9640117436647415e-02" rms="2.7704709768295288e-01" purity="9.1579550504684448e-01" nType="-99"/>
        </Node>
      </Node>
    </BinaryTree>
    <BinaryTree type="DecisionTree" boostWeight="1.0000000000000000e+00" itree="2">
      <Node pos="s" depth="0" NCoef="0" IVar="18" Cut="9.9667775630950928e-01" cType="1" res="4.0046946378424764e-04" rms="4.7345140576362610e-01" purity="5.0060516595840454e-01" nType="0">
        <Node pos="l" depth="1" NCoef="0" IVar="14" Cut="5.9758834838867188e+01" cType="1" res="-2.8529611229896545e-01" rms="3.7907862663269043e-01" purity="1.8456433713436127e-01" nType="0">
          <Node pos="l" depth="2" NCoef="0" IVar="-1" Cut="0.0000000000000000e+00" cType="1" res="-5.7952241040766239e-03" rms="4.9361646175384521e-01" purity="4.3223410844802856e-01" nType="-99"/>
          <Node pos="r" depth="2" NCoef="0" IVar="-1" Cut="0.0000000000000000e+00" cType="1" res="-4.2291808873414993e-02" rms="1.8939985334873199e-01" purity="3.8031566888093948e-02" nType="-99"/>
        </Node>
        <Node pos="r" depth="1" NCoef="0" IVar="20" Cut="5.2159368991851807e-01" cType="1" res="3.2274693250656128e-01" rms="3.4486576914787292e-01" purity="8.5718840360641479e-01" nType="0">
          <Node pos="l" depth="2" NCoef="0" IVar="-1" Cut="0.0000000000000000e+00" cType="1" res="6.8676904775202274e-03" rms="4.9309596419334412e-01" purity="5.7750153541564941e-01" nType="-99"/>
          <Node pos="r" depth="2" NCoef="0" IVar="-1" Cut="0.0000000000000000e+00" cType="1" res="3.8512460887432098e-02" rms="2.6625552773475647e-01" purity="9.2305684089660645e-01" nType="-99"/>
        </Node>
      </Node>
    </BinaryTree>
    <BinaryTree type="DecisionTree" boostWeight="1.0000000000000000e+00" itree="3">
      <Node pos="s" depth="0" NCoef="0" IVar="18" Cut="9.9667775630950928e-01" cType="1" res="-3.7965285591781139e-03" rms="4.6169343590736389e-01" purity="4.9602922797203064e-01" nType="0">
        <Node pos="l" depth="1" NCoef="0" IVar="14" Cut="6.8884086608886719e+01" cType="1" res="-2.6971849799156189e-01" rms="3.7630030512809753e-01" purity="1.8594774603843689e-01" nType="0">
          <Node pos="l" depth="2" NCoef="0" IVar="-1" Cut="0.0000000000000000e+00" cType="1" res="-8.1690708175301552e-03" rms="4.8606052994728088e-01" purity="3.9934891462326050e-01" nType="-99"/>
          <Node pos="r" depth="2" NCoef="0" IVar="-1" Cut="0.0000000000000000e+00" cType="1" res="-4.2684204876422882e-02" rms="1.2421277910470963e-01" purity="1.5890071168541908e-02" nType="-99"/>
        </Node>
        <Node pos="r" depth="1" NCoef="0" IVar="20" Cut="6.0462927818298340e-01" cType="1" res="3.0125853419303894e-01" rms="3.4795251488685608e-01" purity="8.5174232721328735e-01" nType="0">
          <Node pos="l" depth="2" NCoef="0" IVar="-1" Cut="0.0000000000000000e+00" cType="1" res="7.5936713255941868e-03" rms="4.8814252018928528e-01" purity="5.9502452611923218e-01" nType="-99"/>
          <Node pos="r" depth="2" NCoef="0" IVar="-1" Cut="0.0000000000000000e+00" cType="1" res="3.7529900670051575e-02" rms="2.5535222887992859e-01" purity="9.2987817525863647e-01" nType="-99"/>
        </Node>
      </Node>
    </BinaryTree>
    <BinaryTree type="DecisionTree" boostWeight="1.0000000000000000e+00" itree="4">
      <Node pos="s" depth="0" NCoef="0" IVar="18" Cut="9.8338872194290161e-01" cType="1" res="1.1590465437620878e-03" rms="4.5077335834503174e-01" purity="5.0143402814865112e-01" nType="0">
        <Node pos="l" depth="1" NCoef="0" IVar="3" Cut="1.0029219388961792e+00" cType="1" res="-2.6744973659515381e-01" rms="3.6293286085128784e-01" purity="1.7359504103660583e-01" nType="0">
          <Node pos="l" depth="2" NCoef="0" IVar="-1" Cut="0.0000000000000000e+00" cType="1" res="3.4410450607538223e-03" rms="4.9921604990959167e-01" purity="5.2059888839721680e-01" nType="-99"/>
          <Node pos="r" depth="2" NCoef="0" IVar="-1" Cut="0.0000000000000000e+00" cType="1" res="-3.5466779023408890e-02" rms="2.6595613360404968e-01" purity="8.2568101584911346e-02" nType="-99"/>
        </Node>
        <Node pos="r" depth="1" NCoef="0" IVar="15" Cut="6.0814613103866577e-01" cType="1" res="2.7802699804306030e-01" rms="3.5474738478660583e-01" purity="8.3935344219207764e-01" nType="0">
          <Node pos="l" depth="2" NCoef="0" IVar="-1" Cut="0.0000000000000000e+00" cType="1" res="3.1115146353840828e-02" rms="3.2809928059577942e-01" purity="8.6797565221786499e-01" nType="-99"/>
          <Node pos="r" depth="2" NCoef="0" IVar="-1" Cut="0.0000000000000000e+00" cType="1" res="-3.1293850392103195e-02" rms="3.9879709482192993e-01" purity="2.1879309415817261e-01" nType="-99"/>
        </Node>
      </Node>
    </BinaryTree>
    <BinaryTree type="DecisionTree" boostWeight="1.0000000000000000e+00" itree="5">
      <Node pos="s" depth="0" NCoef="0" IVar="18" Cut="9.9667775630950928e-01" cType="1" res="1.5414892695844173e-03" rms="4.4040122628211975e-01" purity="5.0189846754074097e-01" nType="0">
        <Node pos="l" depth="1" NCoef="0" IVar="3" Cut="1.1443512439727783e+00" cType="1" res="-2.4260966479778290e-01" rms="3.7001511454582214e-01" purity="1.8747468292713165e-01" nType="0">
          <Node pos="l" depth="2" NCoef="0" IVar="-1" Cut="0.0000000000000000e+00" cType="1" res="2.1490550134330988e-03" rms="4.9772474169731140e-01" purity="5.0683313608169556e-01" nType="-99"/>
          <Node pos="r" depth="2" NCoef="0" IVar="-1" Cut="0.0000000000000000e+00" cType="1" res="-3.4564863890409470e-02" rms="2.5734585523605347e-01" purity="7.7161848545074463e-02" nType="-99"/>
        </Node>
        <Node pos="r" depth="1" NCoef="0" IVar="20" Cut="4.2193394899368286e-01" cType="1" res="2.7672404050827026e-01" rms="3.3960825204849243e-01" purity="8.5628521442413330e-01" nType="0">
          <Node pos="l" depth="2" NCoef="0" IVar="-1" Cut="0.0000000000000000e+00" cType="1" res="-2.9798646210110746e-05" rms="4.9600586295127869e-01" purity="5.2452152967453003e-01" nType="-99"/>
          <Node pos="r" depth="2" NCoef="0" IVar="-1" Cut="0.0000000000000000e+00" cType="1" res="3.3380039036273956e-02" rms="2.8021606802940369e-01" purity="9.1173511743545532e-01" nType="-99"/>
        </Node>
      </Node>
    </BinaryTree>
    <BinaryTree type="DecisionTree" boostWeight="1.0000000000000000e+00" itree="6">
      <Node pos="s" depth="0" NCoef="0" IVar="19" Cut="1.5282392501831055e-01" cType="1" res="-4.3844315223395824e-04" rms="4.3096786737442017e-01" purity="4.9954456090927124e-01" nType="0">
        <Node pos="l" depth="1" NCoef="0" IVar="20" Cut="4.9829337000846863e-01" cType="1" res="2.1100655198097229e-01" rms="3.8549888134002686e-01" purity="7.7806705236434937e-01" nType="0">
          <Node pos="l" depth="2" NCoef="0" IVar="-1" Cut="0.0000000000000000e+00" cType="1" res="3.4715043148025870e-04" rms="4.8713642358779907e-01" purity="4.9409767985343933e-01" nType="-99"/>
          <Node pos="r" depth="2" NCoef="0" IVar="-1" Cut="0.0000000000000000e+00" cType="1" res="3.2102074474096298e-02" rms="2.8071451187133789e-01" purity="9.0881621837615967e-01" nType="-99"/>
        </Node>
        <Node pos="r" depth="1" NCoef="0" IVar="3" Cut="9.4695645570755005e-01" cType="1" res="-2.8870934247970581e-01" rms="3.0379626154899597e-01" purity="1.1982442438602448e-01" nType="0">
          <Node pos="l" depth="2" NCoef="0" IVar="-1" Cut="0.0000000000000000e+00" cType="1" res="3.6434171488508582e-04" rms="4.9927404522895813e-01" purity="4.9350991845130920e-01" nType="-99"/>
          <Node pos="r" depth="2" NCoef="0" IVar="-1" Cut="0.0000000000000000e+00" cType="1" res="-3.5836100578308105e-02" rms="2.1455897390842438e-01" purity="5.2771136164665222e-02" nType="-99"/>
        </Node>
      </Node>
    </BinaryTree>
    <BinaryTree type="DecisionTree" boostWeight="1.0000000000000000e+00" itree="7">
      <Node pos="s" depth="0" NCoef="0" IVar="19" Cut="3.7541529536247253e-01" cType="1" res="1.9411268876865506e-03" rms="4.2167162895202637e-01" purity="5.0287812948226929e-01" nType="0">
        <Node pos="l" depth="1" NCoef="0" IVar="20" Cut="5.1822417974472046e-01" cType="1" res="1.9404125213623047e-01" rms="3.8709956407546997e-01" purity="7.6695692539215088e-01" nType="0">
          <Node pos="l" depth="2" NCoef="0" IVar="-1" Cut="0.0000000000000000e+00" cType="1" res="-4.3119947076775134e-04" rms="4.8498198390007019e-01" purity="4.8278123140335083e-01" nType="-99"/>
          <Node pos="r" depth="2" NCoef="0" IVar="-1" Cut="0.0000000000000000e+00" cType="1" res="3.1238185241818428e-02" rms="2.7734264731407166e-01" purity="9.1034895181655884e-01" nType="-99"/>
        </Node>
        <Node pos="r" depth="1" NCoef="0" IVar="3" Cut="9.4552785158157349e-01" cType="1" res="-2.8911650180816650e-01" rms="2.8203678131103516e-01" purity="1.0276310145854950e-01" nType="0">
          <Node pos="l" depth="2" NCoef="0" IVar="-1" Cut="0.0000000000000000e+00" cType="1" res="-2.4597735609859228e-03" rms="4.9869039654731750e-01" purity="4.6463841199874878e-01" nType="-99"/>
          <Node pos="r" depth="2" NCoef="0" IVar="-1" Cut="0.0000000000000000e+00" cType="1" res="-3.5530101507902145e-02" rms="1.9614239037036896e-01" purity="4.3452039361000061e-02" nType="-99"/>
        </Node>
      </Node>
    </BinaryTree>
    <BinaryTree type="DecisionTree" boostWeight="1.0000000000000000e+00" itree="8">
      <Node pos="s" depth="0" NCoef="0" IVar="19" Cut="1.3289036229252815e-02" cType="1" res="1.0879694018512964e-03" rms="4.1399848461151123e-01" purity="5.0105333328247070e-01" nType="0">
        <Node pos="l" depth="1" NCoef="0" IVar="15" Cut="6.0813677310943604e-01" cType="1" res="2.0995673537254333e-01" rms="3.6572891473770142e-01" purity="8.0782830715179443e-01" nType="0">
          <Node pos="l" depth="2" NCoef="0" IVar="-1" Cut="0.0000000000000000e+00" cType="1" res="2.5176217779517174e-02" rms="3.4401834011077881e-01" purity="8.3932989835739136e-01" nType="-99"/>
          <Node pos="r" depth="2" NCoef="0" IVar="-1" Cut="0.0000000000000000e+00" cType="1" res="-3.2667551189661026e-02" rms="3.7103161215782166e-01" purity="1.9570802152156830e-01" nType="-99"/>
        </Node>
        <Node pos="r" depth="1" NCoef="0" IVar="14" Cut="6.8122459411621094e+01" cType="1" res="-2.3501327633857727e-01" rms="3.2997125387191772e-01" purity="1.5428085625171661e-01" nType="0">
          <Node pos="l" depth="2" NCoef="0" IVar="-1" Cut="0.0000000000000000e+00" cType="1" res="-7.1765650063753128e-03" rms="4.6858042478561401e-01" purity="3.8159510493278503e-01" nType="-99"/>
          <Node pos="r" depth="2" NCoef="0" IVar="-1" Cut="0.0000000000000000e+00" cType="1" res="-3.6706507205963135e-02" rms="1.2703777849674225e-01" purity="1.7518188804388046e-02" nType="-99"/>
        </Node>
      </Node>
    </BinaryTree>
    <BinaryTree type="DecisionTree" boostWeight="1.0000000000000000e+00" itree="9">
      <Node pos="s" depth="0" NCoef="0" IVar="19" Cut="6.6112959384918213e-01" cType="1" res="1.0594878112897277e-03" rms="4.0679141879081726e-01" purity="5.0119698047637939e-01" nType="0">
        <Node pos="l" depth="1" NCoef="0" IVar="15" Cut="4.5559236407279968e-01" cType="1" res="1.6664718091487885e-01" rms="3.8847649097442627e-01" purity="7.5045222043991089e-01" nType="0">
          <Node pos="l" depth="2" NCoef="0" IVar="-1" Cut="0.0000000000000000e+00" cType="1" res="2.2254226729273796e-02" rms="3.6451053619384766e-01" purity="8.0261123180389404e-01" nType="-99"/>
          <Node pos="r" depth="2" NCoef="0" IVar="-1" Cut="0.0000000000000000e+00" cType="1" res="-3.1312495470046997e-02" rms="3.3665630221366882e-01" purity="1.6626337170600891e-01" nType="-99"/>
        </Node>
        <Node pos="r" depth="1" NCoef="0" IVar="3" Cut="8.7262159585952759e-01" cType="1" res="-2.7092230319976807e-01" rms="2.6531514525413513e-01" purity="9.1789133846759796e-02" nType="0">
          <Node pos="l" depth="2" NCoef="0" IVar="-1" Cut="0.0000000000000000e+00" cType="1" res="-2.6287008076906204e-03" rms="4.9860048294067383e-01" purity="4.5788010954856873e-01" nType="-99"/>
          <Node pos="r" depth="2" NCoef="0" IVar="-1" Cut="0.0000000000000000e+00" cType="1" res="-3.3524572849273682e-02" rms="1.9700302183628082e-01" purity="4.4745344668626785e-02" nType="-99"/>
        </Node>
      </Node>
    </BinaryTree>
    <BinaryTree type="DecisionTree" boostWeight="1.0000000000000000e+00" itree="10">
      <Node pos="s" depth="0" NCoef="0" IVar="18" Cut="9.9667775630950928e-01" cType="1" res="-2.7174124261364341e-04" rms="3.9965197443962097e-01" purity="4.9981525540351868e-01" nType="0">
        <Node pos="l" depth="1" NCoef="0" IVar="3" Cut="1.1849827766418457e+00" cType="1" res="-1.9062297046184540e-01" rms="3.5271286964416504e-01" purity="1.8955810368061066e-01" nType="0">
          <Node pos="l" depth="2" NCoef="0" IVar="-1" Cut="0.0000000000000000e+00" cType="1" res="2.3754569701850414e-03" rms="4.8878711462020874e-01" purity="5.0504565238952637e-01" nType="-99"/>
          <Node pos="r" depth="2" NCoef="0" IVar="-1" Cut="0.0000000000000000e+00" cType="1" res="-3.0344633385539055e-02" rms="2.4070505797863007e-01" purity="7.1461729705333710e-02" nType="-99"/>
        </Node>
        <Node pos="r" depth="1" NCoef="0" IVar="16" Cut="5.0537037849426270e-01" cType="1" res="2.1644821763038635e-01" rms="3.3422848582267761e-01" purity="8.5305130481719971e-01" nType="0">
          <Node pos="l" depth="2" NCoef="0" IVar="-1" Cut="0.0000000000000000e+00" cType="1" res="2.5883240625262260e-02" rms="3.1279331445693970e-01" purity="8.7527173757553101e-01" nType="-99"/>
          <Node pos="r" depth="2" NCoef="0" IVar="-1" Cut="0.0000000000000000e+00" cType="1" res="-3.4464184194803238e-02" rms="4.1569405794143677e-01" purity="2.6529532670974731e-01" nType="-99"/>
        </Node>
      </Node>
    </BinaryTree>
    <BinaryTree type="DecisionTree" boostWeight="1.0000000000000000e+00" itree="11">
      <Node pos="s" depth="0" NCoef="0" IVar="19" Cut="1.4285714924335480e-01" cType="1" res="4.8337542102672160e-04" rms="3.9308497309684753e-01" purity="5.0005072355270386e-01" nType="0">
        <Node pos="l" depth="1" NCoef="0" IVar="20" Cut="6.5106737613677979e-01" cType="1" res="1.6644735634326935e-01" rms="3.7331780791282654e-01" purity="7.7848058938980103e-01" nType="0">
          <Node pos="l" depth="2" NCoef="0" IVar="-1" Cut="0.0000000000000000e+00" cType="1" res="1.7861189553514123e-03" rms="4.7130453586578369e-01" purity="5.4576867818832397e-01" nType="-99"/>
          <Node pos="r" depth="2" NCoef="0" IVar="-1" Cut="0.0000000000000000e+00" cType="1" res="2.9795261099934578e-02" rms="2.4741739034652710e-01" purity="9.3062382936477661e-01" nType="-99"/>
        </Node>
        <Node pos="r" depth="1" NCoef="0" IVar="3" Cut="1.0538101196289062e+00" cType="1" res="-2.2496622800827026e-01" rms="2.9470551013946533e-01" purity="1.2182475626468658e-01" nType="0">
          <Node pos="l" depth="2" NCoef="0" IVar="-1" Cut="0.0000000000000000e+00" cType="1" res="-9.2681113164871931e-04" rms="4.9412670731544495e-01" purity="4.6781253814697266e-01" nType="-99"/>
          <Node pos="r" depth="2" NCoef="0" IVar="-1" Cut="0.0000000000000000e+00" cType="1" res="-3.1353823840618134e-02" rms="2.0258153975009918e-01" purity="4.7698598355054855e-02" nType="-99"/>
        </Node>
      </Node>
    </BinaryTree>
    <BinaryTree type="DecisionTree" boostWeight="1.0000000000000000e+00" itree="12">
      <Node pos="s" depth="0" NCoef="0" IVar="14" Cut="6.8819358825683594e+01" cType="1" res="-6.6837423946708441e-04" rms="3.8624107837677002e-01" purity="5.0024455785751343e-01" nType="0">
        <Node pos="l" depth="1" NCoef="0" IVar="2" Cut="2.2936305999755859e+00" cType="1" res="1.2647157907485962e-01" rms="3.9178490638732910e-01" purity="7.0948344469070435e-01" nType="0">
          <Node pos="l" depth="2" NCoef="0" IVar="-1" Cut="0.0000000000000000e+00" cType="1" res="-8.9388368651270866e-03" rms="4.6200060844421387e-01" purity="3.7045103311538696e-01" nType="-99"/>
          <Node pos="r" depth="2" NCoef="0" IVar="-1" Cut="0.0000000000000000e+00" cType="1" res="2.6943469420075417e-02" rms="2.9096972942352295e-01" purity="8.8977283239364624e-01" nType="-99"/>
        </Node>
        <Node pos="r" depth="1" NCoef="0" IVar="17" Cut="9.0365433692932129e-01" cType="1" res="-2.7128693461418152e-01" rms="1.7989048361778259e-01" purity="5.4877519607543945e-02" nType="0">
          <Node pos="l" depth="2" NCoef="0" IVar="-1" Cut="0.0000000000000000e+00" cType="1" res="-3.4033030271530151e-02" rms="1.4187014102935791e-01" purity="2.5072403252124786e-02" nType="-99"/>
          <Node pos="r" depth="2" NCoef="0" IVar="-1" Cut="0.0000000000000000e+00" cType="1" res="-4.5017846859991550e-03" rms="4.2836248874664307e-01" purity="5.6198281049728394e-01" nType="-99"/>
        </Node>
      </Node>
    </BinaryTree>
    <BinaryTree type="DecisionTree" boostWeight="1.0000000000000000e+00" itree="13">
      <Node pos="s" depth="0" NCoef="0" IVar="17" Cut="6.1794018745422363e-01" cType="1" res="1.2585088843479753e-03" rms="3.7999060750007629e-01" purity="5.0216311216354370e-01" nType="0">
        <Node pos="l" depth="1" NCoef="0" IVar="14" Cut="5.8238769531250000e+01" cType="1" res="-1.5059405565261841e-01" rms="3.6367136240005493e-01" purity="2.3851408064365387e-01" nType="0">
          <Node pos="l" depth="2" NCoef="0" IVar="-1" Cut="0.0000000000000000e+00" cType="1" res="-1.4939234824851155e-03" rms="4.7132188081741333e-01" purity="4.8410537838935852e-01" nType="-99"/>
          <Node pos="r" depth="2" NCoef="0" IVar="-1" Cut="0.0000000000000000e+00" cType="1" res="-3.0752714723348618e-02" rms="1.9615532457828522e-01" purity="5.0658982247114182e-02" nType="-99"/>
        </Node>
        <Node pos="r" depth="1" NCoef="0" IVar="14" Cut="7.9859695434570312e+01" cType="1" res="2.1110504865646362e-01" rms="2.9199728369712830e-01" purity="8.6650240421295166e-01" nType="0">
          <Node pos="l" depth="2" NCoef="0" IVar="-1" Cut="0.0000000000000000e+00" cType="1" res="2.7987964451313019e-02" rms="2.6200017333030701e-01" purity="9.1223406791687012e-01" nType="-99"/>
          <Node pos="r" depth="2" NCoef="0" IVar="-1" Cut="0.0000000000000000e+00" cType="1" res="-3.6754932254552841e-02" rms="2.7081549167633057e-01" purity="9.6394270658493042e-02" nType="-99"/>
        </Node>
      </Node>
    </BinaryTree>
    <BinaryTree type="DecisionTree" boostWeight="1.0000000000000000e+00" itree="14">
      <Node pos="s" depth="0" NCoef="0" IVar="19" Cut="2.9900332912802696e-02" cType="1" res="-5.3792085964232683e-04" rms="3.7412267923355103e-01" purity="4.9928691983222961e-01" nType="0">
        <Node pos="l" depth="1" NCoef="0" IVar="16" Cut="5.0201165676116943e-01" cType="1" res="1.5338155627250671e-01" rms="3.5745832324028015e-01" purity="7.9721188545227051e-01" nType="0">
          <Node pos="l" depth="2" NCoef="0" IVar="-1" Cut="0.0000000000000000e+00" cType="1" res="2.0409317687153816e-02" rms="3.3874472975730896e-01" purity="8.2896900177001953e-01" nType="-99"/>
          <Node pos="r" depth="2" NCoef="0" IVar="-1" Cut="0.0000000000000000e+00" cType="1" res="-3.5475712269544601e-02" rms="3.5175827145576477e-01" purity="1.9130308926105499e-01" nType="-99"/>
        </Node>
        <Node pos="r" depth="1" NCoef="0" IVar="3" Cut="1.3306145668029785e+00" cType="1" res="-1.8622681498527527e-01" rms="3.0267792940139771e-01" purity="1.3986928761005402e-01" nType="0">
          <Node pos="l" depth="2" NCoef="0" IVar="-1" Cut="0.0000000000000000e+00" cType="1" res="-2.6908749714493752e-03" rms="4.7378048300743103e-01" purity="4.2766693234443665e-01" nType="-99"/>
          <Node pos="r" depth="2" NCoef="0" IVar="-1" Cut="0.0000000000000000e+00" cType="1" res="-3.0035732313990593e-02" rms="1.8449102342128754e-01" purity="4.0814846754074097e-02" nType="-99"/>
        </Node>
      </Node>
    </BinaryTree>
    <BinaryTree type="DecisionTree" boostWeight="1.0000000000000000e+00" itree="15">
      <Node pos="s" depth="0" NCoef="0" IVar="17" Cut="5.8471745252609253e-01" cType="1" res="1.4807365369051695e-04" rms="3.6859309673309326e-01" purity="5.0135183334350586e-01" nType="0">
        <Node pos="l" depth="1" NCoef="0" IVar="3" Cut="1.1336098909378052e+00" cType="1" res="-1.4119039475917816e-01" rms="3.5627439618110657e-01" purity="2.3513089120388031e-01" nType="0">
          <Node pos="l" depth="2" NCoef="0" IVar="-1" Cut="0.0000000000000000e+00" cType="1" res="2.7499997522681952e-03" rms="4.7187021374702454e-01" purity="5.4981756210327148e-01" nType="-99"/>
          <Node pos="r" depth="2" NCoef="0" IVar="-1" Cut="0.0000000000000000e+00" cType="1" res="-2.5978507474064827e-02" rms="2.6291489601135254e-01" purity="1.0129137337207794e-01" nType="-99"/>
        </Node>
        <Node pos="r" depth="1" NCoef="0" IVar="14" Cut="7.7431091308593750e+01" cType="1" res="1.9050537049770355e-01" rms="2.9111251235008240e-01" purity="8.5990303754806519e-01" nType="0">
          <Node pos="l" depth="2" NCoef="0" IVar="-1" Cut="0.0000000000000000e+00" cType="1" res="2.6428278535604477e-02" rms="2.6415681838989258e-01" purity="9.0935266017913818e-01" nType="-99"/>
          <Node pos="r" depth="2" NCoef="0" IVar="-1" Cut="0.0000000000000000e+00" cType="1" res="-3.1319923698902130e-02" rms="2.9566693305969238e-01" purity="1.3811568915843964e-01" nType="-99"/>
        </Node>
      </Node>
    </BinaryTree>
    <BinaryTree type="DecisionTree" boostWeight="1.0000000000000000e+00" itree="16">
      <Node pos="s" depth="0" NCoef="0" IVar="17" Cut="5.1495015621185303e-01" cType="1" res="2.5642300024628639e-03" rms="3.6408832669258118e-01" purity="5.0396680831909180e-01" nType="0">
        <Node pos="l" depth="1" NCoef="0" IVar="15" Cut="1.8357890844345093e-01" cType="1" res="-1.3686199486255646e-01" rms="3.5342472791671753e-01" purity="2.2813512384891510e-01" nType="0">
          <Node pos="l" depth="2" NCoef="0" IVar="-1" Cut="0.0000000000000000e+00" cType="1" res="-5.8614136651158333e-03" rms="4.1494446992874146e-01" purity="3.5731709003448486e-01" nType="-99"/>
          <Node pos="r" depth="2" NCoef="0" IVar="-1" Cut="0.0000000000000000e+00" cType="1" res="-3.2840251922607422e-02" rms="1.6453005373477936e-01" purity="3.4641057252883911e-02" nType="-99"/>
        </Node>
        <Node pos="r" depth="1" NCoef="0" IVar="14" Cut="7.7096214294433594e+01" cType="1" res="1.7560063302516937e-01" rms="2.9662874341011047e-01" purity="8.4629058837890625e-01" nType="0">
          <Node pos="l" depth="2" NCoef="0" IVar="-1" Cut="0.0000000000000000e+00" cType="1" res="2.5225352495908737e-02" rms="2.7251097559928894e-01" purity="9.0148705244064331e-01" nType="-99"/>
          <Node pos="r" depth="2" NCoef="0" IVar="-1" Cut="0.0000000000000000e+00" cType="1" res="-3.0601507052779198e-02" rms="2.7143883705139160e-01" purity="1.2716448307037354e-01" nType="-99"/>
        </Node>
      </Node>
    </BinaryTree>
    <BinaryTree type="DecisionTree" boostWeight="1.0000000000000000e+00" itree="17">
      <Node pos="s" depth="0" NCoef="0" IVar="19" Cut="4.3853819370269775e-01" cType="1" res="1.5078127617016435e-03" rms="3.5897547006607056e-01" purity="5.0229567289352417e-01" nType="0">
        <Node pos="l" depth="1" NCoef="0" IVar="15" Cut="4.6219012141227722e-01" cType="1" res="1.2309575080871582e-01" rms="3.6080139875411987e-01" purity="7.6272863149642944e-01" nType="0">
          <Node pos="l" depth="2" NCoef="0" IVar="-1" Cut="0.0000000000000000e+00" cType="1" res="1.8315680325031281e-02" rms="3.4357380867004395e-01" purity="8.1023347377777100e-01" nType="-99"/>
          <Node pos="r" depth="2" NCoef="0" IVar="-1" Cut="0.0000000000000000e+00" cType="1" res="-3.0286323279142380e-02" rms="3.2603165507316589e-01" purity="1.7276145517826080e-01" nType="-99"/>
        </Node>
        <Node pos="r" depth="1" NCoef="0" IVar="3" Cut="7.9919356107711792e-01" cType="1" res="-1.8590958416461945e-01" rms="2.6253497600555420e-01" purity="1.0086059570312500e-01" nType="0">
          <Node pos="l" depth="2" NCoef="0" IVar="-1" Cut="0.0000000000000000e+00" cType="1" res="1.6747736372053623e-03" rms="4.9181148409843445e-01" purity="4.9945053458213806e-01" nType="-99"/>
          <Node pos="r" depth="2" NCoef="0" IVar="-1" Cut="0.0000000000000000e+00" cType="1" res="-2.7568764984607697e-02" rms="2.0671218633651733e-01" purity="5.3164944052696228e-02" nType="-99"/>
        </Node>
      </Node>
    </BinaryTree>
    <BinaryTree type="DecisionTree" boostWeight="1.0000000000000000e+00" itree="18">
      <Node pos="s" depth="0" NCoef="0" IVar="14" Cut="7.0045341491699219e+01" cType="1" res="6.4200646011158824e-04" rms="3.5557305812835693e-01" purity="5.0042963027954102e-01" nType="0">
        <Node pos="l" depth="1" NCoef="0" IVar="15" Cut="3.6931970715522766e-01" cType="1" res="9.8435722291469574e-02" rms="3.7539312243461609e-01" purity="7.0565825700759888e-01" nType="0">
          <Node pos="l" depth="2" NCoef="0" IVar="-1" Cut="0.0000000000000000e+00" cType="1" res="1.7553657293319702e-02" rms="3.5645100474357605e-01" purity="7.8349775075912476e-01" nType="-99"/>
          <Node pos="r" depth="2" NCoef="0" IVar="-1" Cut="0.0000000000000000e+00" cType="1" res="-2.9514892026782036e-02" rms="2.9789322614669800e-01" purity="1.4459855854511261e-01" nType="-99"/>
        </Node>
        <Node pos="r" depth="1" NCoef="0" IVar="14" Cut="8.1698425292968750e+01" cType="1" res="-2.1350461244583130e-01" rms="1.6705134510993958e-01" purity="5.1024261862039566e-02" nType="0">
          <Node pos="l" depth="2" NCoef="0" IVar="-1" Cut="0.0000000000000000e+00" cType="1" res="-1.4355285093188286e-02" rms="3.3244469761848450e-01" purity="2.5588199496269226e-01" nType="-99"/>
          <Node pos="r" depth="2" NCoef="0" IVar="-1" Cut="0.0000000000000000e+00" cType="1" res="-3.2836195081472397e-02" rms="8.8711671531200409e-02" purity="7.7865859493613243e-03" nType="-99"/>
        </Node>
      </Node>
    </BinaryTree>
    <BinaryTree type="DecisionTree" boostWeight="1.0000000000000000e+00" itree="19">
      <Node pos="s" depth="0" NCoef="0" IVar="17" Cut="4.9833884835243225e-01" cType="1" res="-6.4566457876935601e-04" rms="3.4999480843544006e-01" purity="4.9952605366706848e-01" nType="0">
        <Node pos="l" depth="1" NCoef="0" IVar="3" Cut="9.5006710290908813e-01" cType="1" res="-1.2729163467884064e-01" rms="3.4273609519004822e-01" purity="2.2150185704231262e-01" nType="0">
          <Node pos="l" depth="2" NCoef="0" IVar="-1" Cut="0.0000000000000000e+00" cType="1" res="4.2221159674227238e-03" rms="4.6917995810508728e-01" purity="5.7426691055297852e-01" nType="-99"/>
          <Node pos="r" depth="2" NCoef="0" IVar="-1" Cut="0.0000000000000000e+00" cType="1" res="-2.3245502263307571e-02" rms="2.7282634377479553e-01" purity="1.1283996701240540e-01" nType="-99"/>
        </Node>
        <Node pos="r" depth="1" NCoef="0" IVar="14" Cut="7.6941055297851562e+01" cType="1" res="1.5529215335845947e-01" rms="2.9089891910552979e-01" purity="8.4185427427291870e-01" nType="0">
          <Node pos="l" depth="2" NCoef="0" IVar="-1" Cut="0.0000000000000000e+00" cType="1" res="2.3602927103638649e-02" rms="2.7021071314811707e-01" purity="9.0021306276321411e-01" nType="-99"/>
          <Node pos="r" depth="2" NCoef="0" IVar="-1" Cut="0.0000000000000000e+00" cType="1" res="-2.9426967725157738e-02" rms="2.6768681406974792e-01" purity="1.1422906070947647e-01" nType="-99"/>
        </Node>
      </Node>
    </BinaryTree>
    <BinaryTree type="DecisionTree" boostWeight="1.0000000000000000e+00" itree="20">
      <Node pos="s" depth="0" NCoef="0" IVar="14" Cut="6.3529064178466797e+01" cType="1" res="-1.3248861068859696e-03" rms="3.4555953741073608e-01" purity="4.9825200438499451e-01" nType="0">
        <Node pos="l" depth="1" NCoef="0" IVar="16" Cut="3.0301165580749512e-01" cType="1" res="9.9152252078056335e-02" rms="3.6697971820831299e-01" purity="7.2621768712997437e-01" nType="0">
          <Node pos="l" depth="2" NCoef="0" IVar="-1" Cut="0.0000000000000000e+00" cType="1" res="1.7041882500052452e-02" rms="3.4797421097755432e-01" purity="7.8913158178329468e-01" nType="-99"/>
          <Node pos="r" depth="2" NCoef="0" IVar="-1" Cut="0.0000000000000000e+00" cType="1" res="-2.9683066532015800e-02" rms="3.1834563612937927e-01" purity="1.8293677270412445e-01" nType="-99"/>
        </Node>
        <Node pos="r" depth="1" NCoef="0" IVar="17" Cut="9.2026549577713013e-01" cType="1" res="-1.8044877052307129e-01" rms="2.0522870123386383e-01" purity="9.1850072145462036e-02" nType="0">
          <Node pos="l" depth="2" NCoef="0" IVar="-1" Cut="0.0000000000000000e+00" cType="1" res="-2.8069600462913513e-02" rms="1.7816406488418579e-01" purity="5.0583150237798691e-02" nType="-99"/>
          <Node pos="r" depth="2" NCoef="0" IVar="-1" Cut="0.0000000000000000e+00" cType="1" res="4.9700094386935234e-03" rms="3.7387207150459290e-01" purity="6.8621653318405151e-01" nType="-99"/>
        </Node>
      </Node>
    </BinaryTree>
    <BinaryTree type="DecisionTree" boostWeight="1.0000000000000000e+00" itree="21">
      <Node pos="s" depth="0" NCoef="0" IVar="14" Cut="6.8239494323730469e+01" cType="1" res="4.0176664479076862e-03" rms="3.4335413575172424e-01" purity="5.0536417961120605e-01" nType="0">
        <Node pos="l" depth="1" NCoef="0" IVar="16" Cut="3.7935069203376770e-01" cType="1" res="9.1990411281585693e-02" rms="3.6688882112503052e-01" purity="7.1559166908264160e-01" nType="0">
          <Node pos="l" depth="2" NCoef="0" IVar="-1" Cut="0.0000000000000000e+00" cType="1" res="1.6128923743963242e-02" rms="3.5123777389526367e-01" purity="7.7967506647109985e-01" nType="-99"/>
          <Node pos="r" depth="2" NCoef="0" IVar="-1" Cut="0.0000000000000000e+00" cType="1" res="-3.1324431300163269e-02" rms="2.8899636864662170e-01" purity="1.3649226725101471e-01" nType="-99"/>
        </Node>
        <Node pos="r" depth="1" NCoef="0" IVar="14" Cut="7.7504318237304688e+01" cType="1" res="-1.8187274038791656e-01" rms="1.7794179916381836e-01" purity="6.1144031584262848e-02" nType="0">
          <Node pos="l" depth="2" NCoef="0" IVar="-1" Cut="0.0000000000000000e+00" cType="1" res="-9.7587229683995247e-03" rms="3.4820628166198730e-01" purity="3.0995547771453857e-01" nType="-99"/>
          <Node pos="r" depth="2" NCoef="0" IVar="-1" Cut="0.0000000000000000e+00" cType="1" res="-3.0541114509105682e-02" rms="1.1554796993732452e-01" purity="1.7010591924190521e-02" nType="-99"/>
        </Node>
      </Node>
    </BinaryTree>
    <BinaryTree type="DecisionTree" boostWeight="1.0000000000000000e+00" itree="22">
      <Node pos="s" depth="0" NCoef="0" IVar="17" Cut="6.5116280317306519e-01" cType="1" res="-1.5592431882396340e-03" rms="3.3890420198440552e-01" purity="4.9692812561988831e-01" nType="0">
        <Node pos="l" depth="1" NCoef="0" IVar="3" Cut="1.3078819513320923e+00" cType="1" res="-1.0418280959129333e-01" rms="3.4166142344474792e-01" purity="2.4722121655941010e-01" nType="0">
          <Node pos="l" depth="2" NCoef="0" IVar="-1" Cut="0.0000000000000000e+00" cType="1" res="1.4893264742568135e-03" rms="4.5252138376235962e-01" purity="5.3604811429977417e-01" nType="-99"/>
          <Node pos="r" depth="2" NCoef="0" IVar="-1" Cut="0.0000000000000000e+00" cType="1" res="-2.4192333221435547e-02" rms="2.3612713813781738e-01" purity="8.6776047945022583e-02" nType="-99"/>
        </Node>
        <Node pos="r" depth="1" NCoef="0" IVar="14" Cut="7.8257568359375000e+01" cType="1" res="1.5221834182739258e-01" rms="2.6947259902954102e-01" purity="8.7110447883605957e-01" nType="0">
          <Node pos="l" depth="2" NCoef="0" IVar="-1" Cut="0.0000000000000000e+00" cType="1" res="2.3532275110483170e-02" rms="2.5205481052398682e-01" purity="9.1763430833816528e-01" nType="-99"/>
          <Node pos="r" depth="2" NCoef="0" IVar="-1" Cut="0.0000000000000000e+00" cType="1" res="-2.7797445654869080e-02" rms="2.8208136558532715e-01" purity="1.2319315969944000e-01" nType="-99"/>
        </Node>
      </Node>
    </BinaryTree>
    <BinaryTree type="DecisionTree" boostWeight="1.0000000000000000e+00" itree="23">
      <Node pos="s" depth="0" NCoef="0" IVar="20" Cut="6.1784958839416504e-01" cType="1" res="-1.5307936700992286e-04" rms="3.3530452847480774e-01" purity="4.9998950958251953e-01" nType="0">
        <Node pos="l" depth="1" NCoef="0" IVar="15" Cut="1.8363657593727112e-01" cType="1" res="-9.8784044384956360e-02" rms="3.4518116712570190e-01" purity="2.5398120284080505e-01" nType="0">
          <Node pos="l" depth="2" NCoef="0" IVar="-1" Cut="0.0000000000000000e+00" cType="1" res="-3.1904065981507301e-03" rms="4.0363493561744690e-01" purity="3.9326611161231995e-01" nType="-99"/>
          <Node pos="r" depth="2" NCoef="0" IVar="-1" Cut="0.0000000000000000e+00" cType="1" res="-2.9622824862599373e-02" rms="1.8459187448024750e-01" purity="4.5204680413007736e-02" nType="-99"/>
        </Node>
        <Node pos="r" depth="1" NCoef="0" IVar="14" Cut="8.1639503479003906e+01" cType="1" res="1.5163779258728027e-01" rms="2.5312852859497070e-01" purity="8.7859076261520386e-01" nType="0">
          <Node pos="l" depth="2" NCoef="0" IVar="-1" Cut="0.0000000000000000e+00" cType="1" res="2.4523565545678139e-02" rms="2.3547899723052979e-01" purity="9.3256413936614990e-01" nType="-99"/>
          <Node pos="r" depth="2" NCoef="0" IVar="-1" Cut="0.0000000000000000e+00" cType="1" res="-3.2715506851673126e-02" rms="2.0693221688270569e-01" purity="4.8401921987533569e-02" nType="-99"/>
        </Node>
      </Node>
    </BinaryTree>
    <BinaryTree type="DecisionTree" boostWeight="1.0000000000000000e+00" itree="24">
      <Node pos="s" depth="0" NCoef="0" IVar="2" Cut="2.7463209629058838e+00" cType="1" res="-8.5058528929948807e-04" rms="3.3167356252670288e-01" purity="4.9989432096481323e-01" nType="0">
        <Node pos="l" depth="1" NCoef="0" IVar="16" Cut="1.2717747688293457e-01" cType="1" res="-1.0739636421203613e-01" rms="3.3420416712760925e-01" purity="2.2221592068672180e-01" nType="0">
          <Node pos="l" depth="2" NCoef="0" IVar="-1" Cut="0.0000000000000000e+00" cType="1" res="-5.0602997653186321e-03" rms="3.9139539003372192e-01" purity="3.4210371971130371e-01" nType="-99"/>
          <Node pos="r" depth="2" NCoef="0" IVar="-1" Cut="0.0000000000000000e+00" cType="1" res="-2.9743816703557968e-02" rms="1.8338976800441742e-01" purity="4.3746631592512131e-02" nType="-99"/>
        </Node>
        <Node pos="r" depth="1" NCoef="0" IVar="14" Cut="7.8420768737792969e+01" cType="1" res="1.2457363307476044e-01" rms="2.8094315528869629e-01" purity="8.2677358388900757e-01" nType="0">
          <Node pos="l" depth="2" NCoef="0" IVar="-1" Cut="0.0000000000000000e+00" cType="1" res="2.1856982260942459e-02" rms="2.6512369513511658e-01" purity="9.0579807758331299e-01" nType="-99"/>
          <Node pos="r" depth="2" NCoef="0" IVar="-1" Cut="0.0000000000000000e+00" cType="1" res="-3.0034909024834633e-02" rms="2.0674258470535278e-01" purity="5.6788325309753418e-02" nType="-99"/>
        </Node>
      </Node>
    </BinaryTree>
    <BinaryTree type="DecisionTree" boostWeight="1.0000000000000000e+00" itree="25">
      <Node pos="s" depth="0" NCoef="0" IVar="2" Cut="2.9575762748718262e+00" cType="1" res="2.3228031932376325e-04" rms="3.2878184318542480e-01" purity="5.0086343288421631e-01" nType="0">
        <Node pos="l" depth="1" NCoef="0" IVar="15" Cut="2.1343010663986206e-01" cType="1" res="-9.5318585634231567e-02" rms="3.3793622255325317e-01" purity="2.3827238380908966e-01" nType="0">
          <Node pos="l" depth="2" NCoef="0" IVar="-1" Cut="0.0000000000000000e+00" cType="1" res="-3.4969290718436241e-03" rms="4.0044409036636353e-01" purity="3.7254554033279419e-01" nType="-99"/>
          <Node pos="r" depth="2" NCoef="0" IVar="-1" Cut="0.0000000000000000e+00" cType="1" res="-2.9987551271915436e-02" rms="1.6078953444957733e-01" purity="3.1684227287769318e-02" nType="-99"/>
        </Node>
        <Node pos="r" depth="1" NCoef="0" IVar="14" Cut="8.3391593933105469e+01" cType="1" res="1.2630684673786163e-01" rms="2.6852008700370789e-01" purity="8.4733921289443970e-01" nType="0">
          <Node pos="l" depth="2" NCoef="0" IVar="-1" Cut="0.0000000000000000e+00" cType="1" res="2.1763551980257034e-02" rms="2.5544759631156921e-01" purity="9.1261923313140869e-01" nType="-99"/>
          <Node pos="r" depth="2" NCoef="0" IVar="-1" Cut="0.0000000000000000e+00" cType="1" res="-3.0660241842269897e-02" rms="1.9616279006004333e-01" purity="4.3682660907506943e-02" nType="-99"/>
        </Node>
      </Node>
    </BinaryTree>
    <BinaryTree type="DecisionTree" boostWeight="1.0000000000000000e+00" itree="26">
      <Node pos="s" depth="0" NCoef="0" IVar="14" Cut="6.8837921142578125e+01" cType="1" res="7.7244250860530883e-05" rms="3.2691460847854614e-01" purity="4.9895495176315308e-01" nType="0">
        <Node pos="l" depth="1" NCoef="0" IVar="15" Cut="4.2238849401473999e-01" cType="1" res="7.2867453098297119e-02" rms="3.5793066024780273e-01" purity="7.0869588851928711e-01" nType="0">
          <Node pos="l" depth="2" NCoef="0" IVar="-1" Cut="0.0000000000000000e+00" cType="1" res="1.4454794116318226e-02" rms="3.4785863757133484e-01" purity="7.8288233280181885e-01" nType="-99"/>
          <Node pos="r" depth="2" NCoef="0" IVar="-1" Cut="0.0000000000000000e+00" cType="1" res="-2.7694709599018097e-02" rms="2.8056111931800842e-01" purity="1.3275063037872314e-01" nType="-99"/>
        </Node>
        <Node pos="r" depth="1" NCoef="0" IVar="14" Cut="8.4023284912109375e+01" cType="1" res="-1.5304347872734070e-01" rms="1.6612872481346130e-01" purity="5.7746160775423050e-02" nType="0">
          <Node pos="l" depth="2" NCoef="0" IVar="-1" Cut="0.0000000000000000e+00" cType="1" res="-1.1800494045019150e-02" rms="3.1751212477684021e-01" purity="2.4931637942790985e-01" nType="-99"/>
          <Node pos="r" depth="2" NCoef="0" IVar="-1" Cut="0.0000000000000000e+00" cType="1" res="-3.0446054413914680e-02" rms="7.1279317140579224e-02" purity="3.6303247325122356e-03" nType="-99"/>
        </Node>
      </Node>
    </BinaryTree>
    <BinaryTree type="DecisionTree" boostWeight="1.0000000000000000e+00" itree="27">
      <Node pos="s" depth="0" NCoef="0" IVar="19" Cut="8.4053158760070801e-01" cType="1" res="-6.7281228257343173e-04" rms="3.2268342375755310e-01" purity="4.9950417876243591e-01" nType="0">
        <Node pos="l" depth="1" NCoef="0" IVar="16" Cut="4.7213092446327209e-01" cType="1" res="7.7486976981163025e-02" rms="3.4464663267135620e-01" purity="7.3689281940460205e-01" nType="0">
          <Node pos="l" depth="2" NCoef="0" IVar="-1" Cut="0.0000000000000000e+00" cType="1" res="1.3876990415155888e-02" rms="3.3490559458732605e-01" purity="7.8671878576278687e-01" nType="-99"/>
          <Node pos="r" depth="2" NCoef="0" IVar="-1" Cut="0.0000000000000000e+00" cType="1" res="-2.9604682698845863e-02" rms="2.9408419132232666e-01" purity="1.4439786970615387e-01" nType="-99"/>
        </Node>
        <Node pos="r" depth="1" NCoef="0" IVar="16" Cut="9.1061830520629883e-02" cType="1" res="-1.3945920765399933e-01" rms="2.1906594932079315e-01" purity="7.7979028224945068e-02" nType="0">
          <Node pos="l" depth="2" NCoef="0" IVar="-1" Cut="0.0000000000000000e+00" cType="1" res="-1.5373648144304752e-02" rms="2.8326117992401123e-01" purity="1.4373382925987244e-01" nType="-99"/>
          <Node pos="r" depth="2" NCoef="0" IVar="-1" Cut="0.0000000000000000e+00" cType="1" res="-2.9434548690915108e-02" rms="1.2326501309871674e-01" purity="1.6036191955208778e-02" nType="-99"/>
        </Node>
      </Node>
    </BinaryTree>
    <BinaryTree type="DecisionTree" boostWeight="1.0000000000000000e+00" itree="28">
      <Node pos="s" depth="0" NCoef="0" IVar="20" Cut="6.4445823431015015e-01" cType="1" res="-1.8637104658409953e-03" rms="3.2095003128051758e-01" purity="4.9753513932228088e-01" nType="0">
        <Node pos="l" depth="1" NCoef="0" IVar="16" Cut="1.7710717022418976e-01" cType="1" res="-8.0411471426486969e-02" rms="3.3682239055633545e-01" purity="2.6220795512199402e-01" nType="0">
          <Node pos="l" depth="2" NCoef="0" IVar="-1" Cut="0.0000000000000000e+00" cType="1" res="-3.3749248832464218e-03" rms="3.8698589801788330e-01" purity="3.8059166073799133e-01" nType="-99"/>
          <Node pos="r" depth="2" NCoef="0" IVar="-1" Cut="0.0000000000000000e+00" cType="1" res="-2.9231479391455650e-02" rms="1.6715516149997711e-01" purity="3.5852544009685516e-02" nType="-99"/>
        </Node>
        <Node pos="r" depth="1" NCoef="0" IVar="14" Cut="8.9550743103027344e+01" cType="1" res="1.2712210416793823e-01" rms="2.4309571087360382e-01" purity="8.8397341966629028e-01" nType="0">
          <Node pos="l" depth="2" NCoef="0" IVar="-1" Cut="0.0000000000000000e+00" cType="1" res="2.2240685299038887e-02" rms="2.3378847539424896e-01" purity="9.3004596233367920e-01" nType="-99"/>
          <Node pos="r" depth="2" NCoef="0" IVar="-1" Cut="0.0000000000000000e+00" cType="1" res="-3.3834494650363922e-02" rms="1.6335229575634003e-01" purity="1.4923395588994026e-02" nType="-99"/>
        </Node>
      </Node>
    </BinaryTree>
    <BinaryTree type="DecisionTree" boostWeight="1.0000000000000000e+00" itree="29">
      <Node pos="s" depth="0" NCoef="0" IVar="20" Cut="5.3815585374832153e-01" cType="1" res="7.5174539233557880e-05" rms="3.1919938325881958e-01" purity="4.9969735741615295e-01" nType="0">
        <Node pos="l" depth="1" NCoef="0" IVar="15" Cut="1.4383779466152191e-01" cType="1" res="-8.1875950098037720e-02" rms="3.3431935310363770e-01" purity="2.3729175329208374e-01" nType="0">
          <Node pos="l" depth="2" NCoef="0" IVar="-1" Cut="0.0000000000000000e+00" cType="1" res="-2.4284182582050562e-03" rms="4.0241613984107971e-01" purity="3.8005807995796204e-01" nType="-99"/>
          <Node pos="r" depth="2" NCoef="0" IVar="-1" Cut="0.0000000000000000e+00" cType="1" res="-2.7491623535752296e-02" rms="1.7478124797344208e-01" purity="4.1771370917558670e-02" nType="-99"/>
        </Node>
        <Node pos="r" depth="1" NCoef="0" IVar="14" Cut="8.1162628173828125e+01" cType="1" res="1.1090559512376785e-01" rms="2.5915038585662842e-01" purity="8.5457378625869751e-01" nType="0">
          <Node pos="l" depth="2" NCoef="0" IVar="-1" Cut="0.0000000000000000e+00" cType="1" res="2.0679425448179245e-02" rms="2.4975481629371643e-01" purity="9.1903024911880493e-01" nType="-99"/>
          <Node pos="r" depth="2" NCoef="0" IVar="-1" Cut="0.0000000000000000e+00" cType="1" res="-2.9254158958792686e-02" rms="1.9676510989665985e-01" purity="4.3664623051881790e-02" nType="-99"/>
        </Node>
      </Node>
    </BinaryTree>
    <BinaryTree type="DecisionTree" boostWeight="1.0000000000000000e+00" itree="30">
      <Node pos="s" depth="0" NCoef="0" IVar="14" Cut="6.3547691345214844e+01" cType="1" res="1.7007198184728622e-03" rms="3.1721591949462891e-01" purity="5.0258761644363403e-01" nType="0">
        <Node pos="l" depth="1" NCoef="0" IVar="15" Cut="5.1195144653320312e-01" cType="1" res="7.0595435798168182e-02" rms="3.4815850853919983e-01" purity="7.2697961330413818e-01" nType="0">
          <Node pos="l" depth="2" NCoef="0" IVar="-1" Cut="0.0000000000000000e+00" cType="1" res="1.3688799925148487e-02" rms="3.4101960062980652e-01" purity="7.9160153865814209e-01" nType="-99"/>
          <Node pos="r" depth="2" NCoef="0" IVar="-1" Cut="0.0000000000000000e+00" cType="1" res="-2.6772875338792801e-02" rms="2.7479371428489685e-01" purity="1.2827050685882568e-01" nType="-99"/>
        </Node>
        <Node pos="r" depth="1" NCoef="0" IVar="20" Cut="8.7679803371429443e-01" cType="1" res="-1.2289623171091080e-01" rms="1.9819962978363037e-01" purity="9.6771985292434692e-02" nType="0">
          <Node pos="l" depth="2" NCoef="0" IVar="-1" Cut="0.0000000000000000e+00" cType="1" res="-2.4326495826244354e-02" rms="1.8139159679412842e-01" purity="5.7191446423530579e-02" nType="-99"/>
          <Node pos="r" depth="2" NCoef="0" IVar="-1" Cut="0.0000000000000000e+00" cType="1" res="5.4969866760075092e-03" rms="3.2370918989181519e-01" purity="6.7523533105850220e-01" nType="-99"/>
        </Node>
      </Node>
    </BinaryTree>
    <BinaryTree type="DecisionTree" boostWeight="1.0000000000000000e+00" itree="31">
      <Node pos="s" depth="0" NCoef="0" IVar="3" Cut="1.4779433012008667e+00" cType="1" res="1.2020957656204700e-03" rms="3.1389644742012024e-01" purity="5.0130230188369751e-01" nType="0">
        <Node pos="l" depth="1" NCoef="0" IVar="16" Cut="3.8257572054862976e-01" cType="1" res="8.3738476037979126e-02" rms="3.3527761697769165e-01" purity="7.4713432788848877e-01" nType="0">
          <Node pos="l" depth="2" NCoef="0" IVar="-1" Cut="0.0000000000000000e+00" cType="1" res="1.5563511289656162e-02" rms="3.2464486360549927e-01" purity="8.0723363161087036e-01" nType="-99"/>
          <Node pos="r" depth="2" NCoef="0" IVar="-1" Cut="0.0000000000000000e+00" cType="1" res="-2.5878190994262695e-02" rms="2.9387328028678894e-01" purity="1.6318935155868530e-01" nType="-99"/>
        </Node>
        <Node pos="r" depth="1" NCoef="0" IVar="17" Cut="9.2358791828155518e-01" cType="1" res="-9.5503762364387512e-02" rms="2.5482195615768433e-01" purity="2.1326701343059540e-01" nType="0">
          <Node pos="l" depth="2" NCoef="0" IVar="-1" Cut="0.0000000000000000e+00" cType="1" res="-2.0700281485915184e-02" rms="2.4027782678604126e-01" purity="1.2116262316703796e-01" nType="-99"/>
          <Node pos="r" depth="2" NCoef="0" IVar="-1" Cut="0.0000000000000000e+00" cType="1" res="1.3512220233678818e-02" rms="2.7824115753173828e-01" purity="8.4851908683776855e-01" nType="-99"/>
        </Node>
      </Node>
    </BinaryTree>
    <BinaryTree type="DecisionTree" boostWeight="1.0000000000000000e+00" itree="32">
      <Node pos="s" depth="0" NCoef="0" IVar="17" Cut="6.5116280317306519e-01" cType="1" res="-1.8858922412618995e-03" rms="3.1117925047874451e-01" purity="4.9613225460052490e-01" nType="0">
        <Node pos="l" depth="1" NCoef="0" IVar="3" Cut="9.4308829307556152e-01" cType="1" res="-7.4009753763675690e-02" rms="3.2426053285598755e-01" purity="2.4262435734272003e-01" nType="0">
          <Node pos="l" depth="2" NCoef="0" IVar="-1" Cut="0.0000000000000000e+00" cType="1" res="3.9841593243181705e-03" rms="4.4000488519668579e-01" purity="6.0020315647125244e-01" nType="-99"/>
          <Node pos="r" depth="2" NCoef="0" IVar="-1" Cut="0.0000000000000000e+00" cType="1" res="-1.7608143389225006e-02" rms="2.6877224445343018e-01" purity="1.3003942370414734e-01" nType="-99"/>
        </Node>
        <Node pos="r" depth="1" NCoef="0" IVar="15" Cut="4.4234412908554077e-01" cType="1" res="1.0484373569488525e-01" rms="2.5581794977188110e-01" purity="8.7127596139907837e-01" nType="0">
          <Node pos="l" depth="2" NCoef="0" IVar="-1" Cut="0.0000000000000000e+00" cType="1" res="1.9664373248815536e-02" rms="2.4115446209907532e-01" purity="9.0510576963424683e-01" nType="-99"/>
          <Node pos="r" depth="2" NCoef="0" IVar="-1" Cut="0.0000000000000000e+00" cType="1" res="-2.0888036116957664e-02" rms="3.4341317415237427e-01" purity="2.8521671891212463e-01" nType="-99"/>
        </Node>
      </Node>
    </BinaryTree>
    <BinaryTree type="DecisionTree" boostWeight="1.0000000000000000e+00" itree="33">
      <Node pos="s" depth="0" NCoef="0" IVar="2" Cut="3.0790657997131348e+00" cType="1" res="-1.2911115773022175e-03" rms="3.0883020162582397e-01" purity="4.9760136008262634e-01" nType="0">
        <Node pos="l" depth="1" NCoef="0" IVar="16" Cut="2.0678211748600006e-01" cType="1" res="-7.1188844740390778e-02" rms="3.2504162192344666e-01" purity="2.4568039178848267e-01" nType="0">
          <Node pos="l" depth="2" NCoef="0" IVar="-1" Cut="0.0000000000000000e+00" cType="1" res="-3.0074003152549267e-03" rms="3.7827941775321960e-01" purity="3.6406302452087402e-01" nType="-99"/>
          <Node pos="r" depth="2" NCoef="0" IVar="-1" Cut="0.0000000000000000e+00" cType="1" res="-2.8352024033665657e-02" rms="1.6334705054759979e-01" purity="3.3350452780723572e-02" nType="-99"/>
        </Node>
        <Node pos="r" depth="1" NCoef="0" IVar="14" Cut="8.6692008972167969e+01" cType="1" res="9.8849356174468994e-02" rms="2.5224256515502930e-01" purity="8.5852122306823730e-01" nType="0">
          <Node pos="l" depth="2" NCoef="0" IVar="-1" Cut="0.0000000000000000e+00" cType="1" res="1.9331175833940506e-02" rms="2.4639354646205902e-01" purity="9.1645944118499756e-01" nType="-99"/>
          <Node pos="r" depth="2" NCoef="0" IVar="-1" Cut="0.0000000000000000e+00" cType="1" res="-3.2008834183216095e-02" rms="1.5286225080490112e-01" purity="1.6662659123539925e-02" nType="-99"/>
        </Node>
      </Node>
    </BinaryTree>
    <BinaryTree type="DecisionTree" boostWeight="1.0000000000000000e+00" itree="34">
      <Node pos="s" depth="0" NCoef="0" IVar="15" Cut="2.3002880811691284e-01" cType="1" res="8.2515628309920430e-04" rms="3.0833256244659424e-01" purity="5.0104278326034546e-01" nType="0">
        <Node pos="l" depth="1" NCoef="0" IVar="14" Cut="7.8198867797851562e+01" cType="1" res="4.7834888100624084e-02" rms="3.2717773318290710e-01" purity="6.4659094810485840e-01" nType="0">
          <Node pos="l" depth="2" NCoef="0" IVar="-1" Cut="0.0000000000000000e+00" cType="1" res="1.2147614732384682e-02" rms="3.4130641818046570e-01" purity="7.7410918474197388e-01" nType="-99"/>
          <Node pos="r" depth="2" NCoef="0" IVar="-1" Cut="0.0000000000000000e+00" cType="1" res="-2.6101116091012955e-02" rms="1.4470311999320984e-01" purity="3.1401414424180984e-02" nType="-99"/>
        </Node>
        <Node pos="r" depth="1" NCoef="0" IVar="11" Cut="1.4882176208496094e+02" cType="1" res="-1.3679014146327972e-01" rms="1.8601775169372559e-01" purity="7.4968047440052032e-02" nType="0">
          <Node pos="l" depth="2" NCoef="0" IVar="-1" Cut="0.0000000000000000e+00" cType="1" res="-2.8975296765565872e-02" rms="1.6130980849266052e-01" purity="3.7340980023145676e-02" nType="-99"/>
          <Node pos="r" depth="2" NCoef="0" IVar="-1" Cut="0.0000000000000000e+00" cType="1" res="-5.8379215188324451e-03" rms="2.4608857929706573e-01" purity="2.4748550355434418e-01" nType="-99"/>
        </Node>
      </Node>
    </BinaryTree>
    <BinaryTree type="DecisionTree" boostWeight="1.0000000000000000e+00" itree="35">
      <Node pos="s" depth="0" NCoef="0" IVar="20" Cut="6.5110224485397339e-01" cType="1" res="-2.4504080647602677e-04" rms="3.0646046996116638e-01" purity="5.0009459257125854e-01" nType="0">
        <Node pos="l" depth="1" NCoef="0" IVar="15" Cut="2.5986531376838684e-01" cType="1" res="-6.1866678297519684e-02" rms="3.2843747735023499e-01" purity="2.6327863335609436e-01" nType="0">
          <Node pos="l" depth="2" NCoef="0" IVar="-1" Cut="0.0000000000000000e+00" cType="1" res="-2.1191560663282871e-03" rms="3.8819649815559387e-01" purity="3.9789399504661560e-01" nType="-99"/>
          <Node pos="r" depth="2" NCoef="0" IVar="-1" Cut="0.0000000000000000e+00" cType="1" res="-2.6523008942604065e-02" rms="1.6146428883075714e-01" purity="3.5877775400876999e-02" nType="-99"/>
        </Node>
        <Node pos="r" depth="1" NCoef="0" IVar="14" Cut="8.6049217224121094e+01" cType="1" res="1.0039414465427399e-01" rms="2.3409451544284821e-01" purity="8.8685756921768188e-01" nType="0">
          <Node pos="l" depth="2" NCoef="0" IVar="-1" Cut="0.0000000000000000e+00" cType="1" res="2.0194975659251213e-02" rms="2.2796609997749329e-01" purity="9.3426036834716797e-01" nType="-99"/>
          <Node pos="r" depth="2" NCoef="0" IVar="-1" Cut="0.0000000000000000e+00" cType="1" res="-2.9165793210268021e-02" rms="1.8988059461116791e-01" purity="3.3634886145591736e-02" nType="-99"/>
        </Node>
      </Node>
    </BinaryTree>
    <BinaryTree type="DecisionTree" boostWeight="1.0000000000000000e+00" itree="36">
      <Node pos="s" depth="0" NCoef="0" IVar="14" Cut="6.8107398986816406e+01" cType="1" res="-9.4965478638187051e-04" rms="3.0488365888595581e-01" purity="4.9663838744163513e-01" nType="0">
        <Node pos="l" depth="1" NCoef="0" IVar="16" Cut="3.7929499149322510e-01" cType="1" res="5.2198279649019241e-02" rms="3.4298348426818848e-01" purity="7.1111679077148438e-01" nType="0">
          <Node pos="l" depth="2" NCoef="0" IVar="-1" Cut="0.0000000000000000e+00" cType="1" res="1.1496562510728836e-02" rms="3.3881503343582153e-01" purity="7.7646076679229736e-01" nType="-99"/>
          <Node pos="r" depth="2" NCoef="0" IVar="-1" Cut="0.0000000000000000e+00" cType="1" res="-2.5973223149776459e-02" rms="2.7675276994705200e-01" purity="1.4064273238182068e-01" nType="-99"/>
        </Node>
        <Node pos="r" depth="1" NCoef="0" IVar="17" Cut="9.1362112760543823e-01" cType="1" res="-1.0893556475639343e-01" rms="1.5937918424606323e-01" purity="6.0861323028802872e-02" nType="0">
          <Node pos="l" depth="2" NCoef="0" IVar="-1" Cut="0.0000000000000000e+00" cType="1" res="-2.5141907855868340e-02" rms="1.3796775043010712e-01" purity="2.9478907585144043e-02" nType="-99"/>
          <Node pos="r" depth="2" NCoef="0" IVar="-1" Cut="0.0000000000000000e+00" cType="1" res="-3.2458247733302414e-04" rms="3.5183009505271912e-01" purity="6.0512524843215942e-01" nType="-99"/>
        </Node>
      </Node>
    </BinaryTree>
    <BinaryTree type="DecisionTree" boostWeight="1.0000000000000000e+00" itree="37">
      <Node pos="s" depth="0" NCoef="0" IVar="17" Cut="3.3554816246032715e-01" cType="1" res="-4.5455133658833802e-04" rms="3.0278840661048889e-01" purity="4.9768346548080444e-01" nType="0">
        <Node pos="l" depth="1" NCoef="0" IVar="3" Cut="8.6360430717468262e-01" cType="1" res="-7.2918415069580078e-02" rms="3.1211599707603455e-01" purity="2.0421311259269714e-01" nType="0">
          <Node pos="l" depth="2" NCoef="0" IVar="-1" Cut="0.0000000000000000e+00" cType="1" res="2.2346219047904015e-03" rms="4.5461553335189819e-01" purity="5.6077283620834351e-01" nType="-99"/>
          <Node pos="r" depth="2" NCoef="0" IVar="-1" Cut="0.0000000000000000e+00" cType="1" res="-1.6842732205986977e-02" rms="2.6101726293563843e-01" purity="1.1732621490955353e-01" nType="-99"/>
        </Node>
        <Node pos="r" depth="1" NCoef="0" IVar="15" Cut="4.5229354500770569e-01" cType="1" res="7.5244195759296417e-02" rms="2.7289828658103943e-01" purity="8.0425465106964111e-01" nType="0">
          <Node pos="l" depth="2" NCoef="0" IVar="-1" Cut="0.0000000000000000e+00" cType="1" res="1.6443634405732155e-02" rms="2.6300835609436035e-01" purity="8.6487001180648804e-01" nType="-99"/>
          <Node pos="r" depth="2" NCoef="0" IVar="-1" Cut="0.0000000000000000e+00" cType="1" res="-2.3678719997406006e-02" rms="2.7224281430244446e-01" purity="1.5482789278030396e-01" nType="-99"/>
        </Node>
      </Node>
    </BinaryTree>
    <BinaryTree type="DecisionTree" boostWeight="1.0000000000000000e+00" itree="38">
      <Node pos="s" depth="0" NCoef="0" IVar="3" Cut="1.4665567874908447e+00" cType="1" res="7.5540039688348770e-04" rms="3.0125594139099121e-01" purity="5.0144535303115845e-01" nType="0">
        <Node pos="l" depth="1" NCoef="0" IVar="16" Cut="5.4181164503097534e-01" cType="1" res="6.7640438675880432e-02" rms="3.2696962356567383e-01" purity="7.4840968847274780e-01" nType="0">
          <Node pos="l" depth="2" NCoef="0" IVar="-1" Cut="0.0000000000000000e+00" cType="1" res="1.3337401673197746e-02" rms="3.2205754518508911e-01" purity="8.0297845602035522e-01" nType="-99"/>
          <Node pos="r" depth="2" NCoef="0" IVar="-1" Cut="0.0000000000000000e+00" cType="1" res="-2.6430286467075348e-02" rms="2.6249814033508301e-01" purity="1.2301560491323471e-01" nType="-99"/>
        </Node>
        <Node pos="r" depth="1" NCoef="0" IVar="17" Cut="9.2358791828155518e-01" cType="1" res="-7.5864873826503754e-02" rms="2.4749642610549927e-01" purity="2.1853488683700562e-01" nType="0">
          <Node pos="l" depth="2" NCoef="0" IVar="-1" Cut="0.0000000000000000e+00" cType="1" res="-1.8828440457582474e-02" rms="2.3721249401569366e-01" purity="1.2072505801916122e-01" nType="-99"/>
          <Node pos="r" depth="2" NCoef="0" IVar="-1" Cut="0.0000000000000000e+00" cType="1" res="1.1566109955310822e-02" rms="2.6679790019989014e-01" purity="8.5602271556854248e-01" nType="-99"/>
        </Node>
      </Node>
    </BinaryTree>
    <BinaryTree type="DecisionTree" boostWeight="1.0000000000000000e+00" itree="39">
      <Node pos="s" depth="0" NCoef="0" IVar="3" Cut="1.4216619729995728e+00" cType="1" res="-6.5828056540340185e-04" rms="2.9855686426162720e-01" purity="5.0023001432418823e-01" nType="0">
        <Node pos="l" depth="1" NCoef="0" IVar="15" Cut="6.6121268272399902e-01" cType="1" res="6.5459497272968292e-02" rms="3.2522317767143250e-01" purity="7.5467950105667114e-01" nType="0">
          <Node pos="l" depth="2" NCoef="0" IVar="-1" Cut="0.0000000000000000e+00" cType="1" res="1.2990785762667656e-02" rms="3.2120802998542786e-01" purity="8.0853635072708130e-01" nType="-99"/>
          <Node pos="r" depth="2" NCoef="0" IVar="-1" Cut="0.0000000000000000e+00" cType="1" res="-2.6212617754936218e-02" rms="2.5108140707015991e-01" purity="1.0966678708791733e-01" nType="-99"/>
        </Node>
        <Node pos="r" depth="1" NCoef="0" IVar="17" Cut="9.0365433692932129e-01" cType="1" res="-7.2744823992252350e-02" rms="2.4705871939659119e-01" purity="2.2281014919281006e-01" nType="0">
          <Node pos="l" depth="2" NCoef="0" IVar="-1" Cut="0.0000000000000000e+00" cType="1" res="-1.8647577613592148e-02" rms="2.3434135317802429e-01" purity="1.1478672921657562e-01" nType="-99"/>
          <Node pos="r" depth="2" NCoef="0" IVar="-1" Cut="0.0000000000000000e+00" cType="1" res="9.8530352115631104e-03" rms="2.7748033404350281e-01" purity="8.4011983871459961e-01" nType="-99"/>
        </Node>
      </Node>
    </BinaryTree>
    <BinaryTree type="DecisionTree" boostWeight="1.0000000000000000e+00" itree="40">
      <Node pos="s" depth="0" NCoef="0" IVar="17" Cut="3.4551492333412170e-01" cType="1" res="-8.7138696108013391e-04" rms="2.9892113804817200e-01" purity="4.9908363819122314e-01" nType="0">
        <Node pos="l" depth="1" NCoef="0" IVar="11" Cut="1.4618002319335938e+02" cType="1" res="-6.8276301026344299e-02" rms="3.0923402309417725e-01" purity="2.0206044614315033e-01" nType="0">
          <Node pos="l" depth="2" NCoef="0" IVar="-1" Cut="0.0000000000000000e+00" cType="1" res="-1.7044428735971451e-02" rms="2.7521640062332153e-01" purity="1.2991076707839966e-01" nType="-99"/>
          <Node pos="r" depth="2" NCoef="0" IVar="-1" Cut="0.0000000000000000e+00" cType="1" res="-1.2179056648164988e-03" rms="3.5955509543418884e-01" purity="3.4384202957153320e-01" nType="-99"/>
        </Node>
        <Node pos="r" depth="1" NCoef="0" IVar="15" Cut="5.1197427511215210e-01" cType="1" res="6.9031082093715668e-02" rms="2.7065011858940125e-01" purity="8.0711239576339722e-01" nType="0">
          <Node pos="l" depth="2" NCoef="0" IVar="-1" Cut="0.0000000000000000e+00" cType="1" res="1.5395873226225376e-02" rms="2.6273334026336670e-01" purity="8.6382883787155151e-01" nType="-99"/>
          <Node pos="r" depth="2" NCoef="0" IVar="-1" Cut="0.0000000000000000e+00" cType="1" res="-2.1138962358236313e-02" rms="2.7752807736396790e-01" purity="1.5883195400238037e-01" nType="-99"/>
        </Node>
      </Node>
    </BinaryTree>
    <BinaryTree type="DecisionTree" boostWeight="1.0000000000000000e+00" itree="41">
      <Node pos="s" depth="0" NCoef="0" IVar="3" Cut="1.6583113670349121e+00" cType="1" res="-3.1645275885239244e-04" rms="2.9832524061203003e-01" purity="4.9843567609786987e-01" nType="0">
        <Node pos="l" depth="1" NCoef="0" IVar="16" Cut="2.9975447058677673e-01" cType="1" res="5.3618971258401871e-02" rms="3.2690483331680298e-01" purity="7.2008353471755981e-01" nType="0">
          <Node pos="l" depth="2" NCoef="0" IVar="-1" Cut="0.0000000000000000e+00" cType="1" res="1.2089847587049007e-02" rms="3.2405081391334534e-01" purity="7.8996539115905762e-01" nType="-99"/>
          <Node pos="r" depth="2" NCoef="0" IVar="-1" Cut="0.0000000000000000e+00" cType="1" res="-2.2137528285384178e-02" rms="2.7332001924514771e-01" purity="1.6696517169475555e-01" nType="-99"/>
        </Node>
        <Node pos="r" depth="1" NCoef="0" IVar="20" Cut="9.0985363721847534e-01" cType="1" res="-7.7591858804225922e-02" rms="2.3077525198459625e-01" purity="1.8087209761142731e-01" nType="0">
          <Node pos="l" depth="2" NCoef="0" IVar="-1" Cut="0.0000000000000000e+00" cType="1" res="-1.8777329474687576e-02" rms="2.2569482028484344e-01" purity="1.2240055948495865e-01" nType="-99"/>
          <Node pos="r" depth="2" NCoef="0" IVar="-1" Cut="0.0000000000000000e+00" cType="1" res="1.1959555558860302e-02" rms="2.4054223299026489e-01" purity="8.4331756830215454e-01" nType="-99"/>
        </Node>
      </Node>
    </BinaryTree>
    <BinaryTree type="DecisionTree" boostWeight="1.0000000000000000e+00" itree="42">
      <Node pos="s" depth="0" NCoef="0" IVar="14" Cut="6.0208442687988281e+01" cType="1" res="-7.0075399708002806e-04" rms="2.9727327823638916e-01" purity="4.9744075536727905e-01" nType="0">
        <Node pos="l" depth="1" NCoef="0" IVar="15" Cut="3.7596520781517029e-01" cType="1" res="4.9240112304687500e-02" rms="3.3541393280029297e-01" purity="7.3365753889083862e-01" nType="0">
          <Node pos="l" depth="2" NCoef="0" IVar="-1" Cut="0.0000000000000000e+00" cType="1" res="1.0981694795191288e-02" rms="3.3309939503669739e-01" purity="8.0071938037872314e-01" nType="-99"/>
          <Node pos="r" depth="2" NCoef="0" IVar="-1" Cut="0.0000000000000000e+00" cType="1" res="-2.0220682024955750e-02" rms="2.8907266259193420e-01" purity="1.6745547950267792e-01" nType="-99"/>
        </Node>
        <Node pos="r" depth="1" NCoef="0" IVar="20" Cut="9.0014547109603882e-01" cType="1" res="-7.9498052597045898e-02" rms="2.0038172602653503e-01" purity="1.2473507970571518e-01" nType="0">
          <Node pos="l" depth="2" NCoef="0" IVar="-1" Cut="0.0000000000000000e+00" cType="1" res="-2.0232094451785088e-02" rms="1.9125084578990936e-01" purity="7.7447690069675446e-02" nType="-99"/>
          <Node pos="r" depth="2" NCoef="0" IVar="-1" Cut="0.0000000000000000e+00" cType="1" res="8.5918782278895378e-03" rms="2.6734620332717896e-01" purity="7.7498787641525269e-01" nType="-99"/>
        </Node>
      </Node>
    </BinaryTree>
    <BinaryTree type="DecisionTree" boostWeight="1.0000000000000000e+00" itree="43">
      <Node pos="s" depth="0" NCoef="0" IVar="17" Cut="7.4750828742980957e-01" cType="1" res="4.1606635204516351e-04" rms="2.9559457302093506e-01" purity="4.9949821829795837e-01" nType="0">
        <Node pos="l" depth="1" NCoef="0" IVar="16" Cut="2.1353222429752350e-01" cType="1" res="-4.6786814928054810e-02" rms="3.1661722064018250e-01" purity="2.6785111427307129e-01" nType="0">
          <Node pos="l" depth="2" NCoef="0" IVar="-1" Cut="0.0000000000000000e+00" cType="1" res="-2.0397629123181105e-03" rms="3.6615702509880066e-01" purity="3.8175818324089050e-01" nType="-99"/>
          <Node pos="r" depth="2" NCoef="0" IVar="-1" Cut="0.0000000000000000e+00" cType="1" res="-2.4877989664673805e-02" rms="1.6335329413414001e-01" purity="4.1568633168935776e-02" nType="-99"/>
        </Node>
        <Node pos="r" depth="1" NCoef="0" IVar="14" Cut="7.4731506347656250e+01" cType="1" res="8.1201665103435516e-02" rms="2.3454114794731140e-01" purity="8.9595168828964233e-01" nType="0">
          <Node pos="l" depth="2" NCoef="0" IVar="-1" Cut="0.0000000000000000e+00" cType="1" res="1.8235804513096809e-02" rms="2.2466281056404114e-01" purity="9.3439173698425293e-01" nType="-99"/>
          <Node pos="r" depth="2" NCoef="0" IVar="-1" Cut="0.0000000000000000e+00" cType="1" res="-1.6473650932312012e-02" rms="3.0978661775588989e-01" purity="2.3656822741031647e-01" nType="-99"/>
        </Node>
      </Node>
    </BinaryTree>
    <BinaryTree type="DecisionTree" boostWeight="1.0000000000000000e+00" itree="44">
      <Node pos="s" depth="0" NCoef="0" IVar="19" Cut="9.2026579380035400e-01" cType="1" res="1.1141740251332521e-03" rms="2.9395934939384460e-01" purity="5.0188863277435303e-01" nType="0">
        <Node pos="l" depth="1" NCoef="0" IVar="16" Cut="5.7501643896102905e-01" cType="1" res="4.4793035835027695e-02" rms="3.2346895337104797e-01" purity="7.2968870401382446e-01" nType="0">
          <Node pos="l" depth="2" NCoef="0" IVar="-1" Cut="0.0000000000000000e+00" cType="1" res="9.8899407312273979e-03" rms="3.2187482714653015e-01" purity="7.7860575914382935e-01" nType="-99"/>
          <Node pos="r" depth="2" NCoef="0" IVar="-1" Cut="0.0000000000000000e+00" cType="1" res="-2.6773590594530106e-02" rms="2.5907650589942932e-01" purity="1.1116112023591995e-01" nType="-99"/>
        </Node>
        <Node pos="r" depth="1" NCoef="0" IVar="8" Cut="1.1547431945800781e+02" cType="1" res="-8.0580927431583405e-02" rms="2.0516243577003479e-01" purity="7.5821049511432648e-02" nType="0">
          <Node pos="l" depth="2" NCoef="0" IVar="-1" Cut="0.0000000000000000e+00" cType="1" res="-1.3380226679146290e-02" rms="2.1920435130596161e-01" purity="8.9258186519145966e-02" nType="-99"/>
          <Node pos="r" depth="2" NCoef="0" IVar="-1" Cut="0.0000000000000000e+00" cType="1" res="-2.3711401969194412e-02" rms="1.7824226617813110e-01" purity="5.6510884314775467e-02" nType="-99"/>
        </Node>
      </Node>
    </BinaryTree>
    <BinaryTree type="DecisionTree" boostWeight="1.0000000000000000e+00" itree="45">
      <Node pos="s" depth="0" NCoef="0" IVar="17" Cut="3.0564785003662109e-01" cType="1" res="-6.2763795722275972e-04" rms="2.9400932788848877e-01" purity="4.9761393666267395e-01" nType="0">
        <Node pos="l" depth="1" NCoef="0" IVar="20" Cut="6.5612476319074631e-03" cType="1" res="-5.8796476572751999e-02" rms="3.0469691753387451e-01" purity="2.0109814405441284e-01" nType="0">
          <Node pos="l" depth="2" NCoef="0" IVar="-1" Cut="0.0000000000000000e+00" cType="1" res="1.0568346828222275e-02" rms="3.7546780705451965e-01" purity="3.9591097831726074e-01" nType="-99"/>
          <Node pos="r" depth="2" NCoef="0" IVar="-1" Cut="0.0000000000000000e+00" cType="1" res="-1.2648100964725018e-02" rms="2.9305705428123474e-01" purity="1.8093861639499664e-01" nType="-99"/>
        </Node>
        <Node pos="r" depth="1" NCoef="0" IVar="16" Cut="5.5507832765579224e-01" cType="1" res="5.7732418179512024e-02" rms="2.7059397101402283e-01" purity="7.9510444402694702e-01" nType="0">
          <Node pos="l" depth="2" NCoef="0" IVar="-1" Cut="0.0000000000000000e+00" cType="1" res="1.3334642164409161e-02" rms="2.6468256115913391e-01" purity="8.3852070569992065e-01" nType="-99"/>
          <Node pos="r" depth="2" NCoef="0" IVar="-1" Cut="0.0000000000000000e+00" cType="1" res="-2.4895688518881798e-02" rms="2.7637344598770142e-01" purity="1.4978465437889099e-01" nType="-99"/>
        </Node>
      </Node>
    </BinaryTree>
    <BinaryTree type="DecisionTree" boostWeight="1.0000000000000000e+00" itree="46">
      <Node pos="s" depth="0" NCoef="0" IVar="15" Cut="1.8357890844345093e-01" cType="1" res="2.3830824065953493e-03" rms="2.9155871272087097e-01" purity="5.0575178861618042e-01" nType="0">
        <Node pos="l" depth="1" NCoef="0" IVar="14" Cut="8.4460639953613281e+01" cType="1" res="3.7269029766321182e-02" rms="3.1446829438209534e-01" purity="6.5574049949645996e-01" nType="0">
          <Node pos="l" depth="2" NCoef="0" IVar="-1" Cut="0.0000000000000000e+00" cType="1" res="1.0035692714154720e-02" rms="3.3218714594841003e-01" purity="7.7032518386840820e-01" nType="-99"/>
          <Node pos="r" depth="2" NCoef="0" IVar="-1" Cut="0.0000000000000000e+00" cType="1" res="-2.7347557246685028e-02" rms="9.7812682390213013e-02" purity="1.0852991603314877e-02" nType="-99"/>
        </Node>
        <Node pos="r" depth="1" NCoef="0" IVar="11" Cut="1.4950270080566406e+02" cType="1" res="-9.4686932861804962e-02" rms="1.8320980668067932e-01" purity="8.8408835232257843e-02" nType="0">
          <Node pos="l" depth="2" NCoef="0" IVar="-1" Cut="0.0000000000000000e+00" cType="1" res="-2.6021081954240799e-02" rms="1.6468086838722229e-01" purity="4.7810584306716919e-02" nType="-99"/>
          <Node pos="r" depth="2" NCoef="0" IVar="-1" Cut="0.0000000000000000e+00" cType="1" res="-2.4310080334544182e-03" rms="2.3201543092727661e-01" purity="2.6979544758796692e-01" nType="-99"/>
        </Node>
      </Node>
    </BinaryTree>
    <BinaryTree type="DecisionTree" boostWeight="1.0000000000000000e+00" itree="47">
      <Node pos="s" depth="0" NCoef="0" IVar="20" Cut="5.3477293252944946e-01" cType="1" res="1.3603969709947705e-03" rms="2.9081118106842041e-01" purity="5.0207066535949707e-01" nType="0">
        <Node pos="l" depth="1" NCoef="0" IVar="15" Cut="8.4074899554252625e-02" cType="1" res="-4.6485491096973419e-02" rms="3.1407862901687622e-01" purity="2.3428878188133240e-01" nType="0">
          <Node pos="l" depth="2" NCoef="0" IVar="-1" Cut="0.0000000000000000e+00" cType="1" res="-1.2179467594251037e-03" rms="3.8708713650703430e-01" purity="3.8120585680007935e-01" nType="-99"/>
          <Node pos="r" depth="2" NCoef="0" IVar="-1" Cut="0.0000000000000000e+00" cType="1" res="-2.0698919892311096e-02" rms="1.8824748694896698e-01" purity="6.3144914805889130e-02" nType="-99"/>
        </Node>
        <Node pos="r" depth="1" NCoef="0" IVar="14" Cut="8.1328842163085938e+01" cType="1" res="6.4553685486316681e-02" rms="2.4282798171043396e-01" purity="8.5574835538864136e-01" nType="0">
          <Node pos="l" depth="2" NCoef="0" IVar="-1" Cut="0.0000000000000000e+00" cType="1" res="1.6067050397396088e-02" rms="2.4020227789878845e-01" purity="9.2100739479064941e-01" nType="-99"/>
          <Node pos="r" depth="2" NCoef="0" IVar="-1" Cut="0.0000000000000000e+00" cType="1" res="-2.3866558447480202e-02" rms="2.0297051966190338e-01" purity="5.6855935603380203e-02" nType="-99"/>
        </Node>
      </Node>
    </BinaryTree>
    <BinaryTree type="DecisionTree" boostWeight="1.0000000000000000e+00" itree="48">
      <Node pos="s" depth="0" NCoef="0" IVar="3" Cut="1.4594882726669312e+00" cType="1" res="5.5071570386644453e-05" rms="2.9059696197509766e-01" purity="4.9962252378463745e-01" nType="0">
        <Node pos="l" depth="1" NCoef="0" IVar="16" Cut="6.5455824136734009e-01" cType="1" res="5.0151731818914413e-02" rms="3.2082089781761169e-01" purity="7.4795097112655640e-01" nType="0">
          <Node pos="l" depth="2" NCoef="0" IVar="-1" Cut="0.0000000000000000e+00" cType="1" res="1.0703014209866524e-02" rms="3.1961360573768616e-01" purity="7.9734933376312256e-01" nType="-99"/>
          <Node pos="r" depth="2" NCoef="0" IVar="-1" Cut="0.0000000000000000e+00" cType="1" res="-2.3960920050740242e-02" rms="2.5832000374794006e-01" purity="1.2128354609012604e-01" nType="-99"/>
        </Node>
        <Node pos="r" depth="1" NCoef="0" IVar="17" Cut="9.2358791828155518e-01" cType="1" res="-5.6519716978073120e-02" rms="2.3988041281700134e-01" purity="2.1918211877346039e-01" nType="0">
          <Node pos="l" depth="2" NCoef="0" IVar="-1" Cut="0.0000000000000000e+00" cType="1" res="-1.5993105247616768e-02" rms="2.3242232203483582e-01" purity="1.2402706593275070e-01" nType="-99"/>
          <Node pos="r" depth="2" NCoef="0" IVar="-1" Cut="0.0000000000000000e+00" cType="1" res="7.9206349328160286e-03" rms="2.6556703448295593e-01" purity="8.5026401281356812e-01" nType="-99"/>
        </Node>
      </Node>
    </BinaryTree>
    <BinaryTree type="DecisionTree" boostWeight="1.0000000000000000e+00" itree="49">
      <Node pos="s" depth="0" NCoef="0" IVar="14" Cut="5.9790985107421875e+01" cType="1" res="4.5500276610255241e-04" rms="2.8986430168151855e-01" purity="5.0018298625946045e-01" nType="0">
        <Node pos="l" depth="1" NCoef="0" IVar="15" Cut="6.5791493654251099e-01" cType="1" res="4.1661992669105530e-02" rms="3.2838320732116699e-01" purity="7.3814737796783447e-01" nType="0">
          <Node pos="l" depth="2" NCoef="0" IVar="-1" Cut="0.0000000000000000e+00" cType="1" res="9.4873132184147835e-03" rms="3.2914167642593384e-01" purity="7.9479831457138062e-01" nType="-99"/>
          <Node pos="r" depth="2" NCoef="0" IVar="-1" Cut="0.0000000000000000e+00" cType="1" res="-2.3155983537435532e-02" rms="2.5010836124420166e-01" purity="1.0534810274839401e-01" nType="-99"/>
        </Node>
        <Node pos="r" depth="1" NCoef="0" IVar="14" Cut="7.7375404357910156e+01" cType="1" res="-6.3833922147750854e-02" rms="2.0021347701549530e-01" purity="1.2892374396324158e-01" nType="0">
          <Node pos="l" depth="2" NCoef="0" IVar="-1" Cut="0.0000000000000000e+00" cType="1" res="-3.3411579206585884e-03" rms="3.3057627081871033e-01" purity="4.0323901176452637e-01" nType="-99"/>
          <Node pos="r" depth="2" NCoef="0" IVar="-1" Cut="0.0000000000000000e+00" cType="1" res="-2.5239177048206329e-02" rms="1.0134813934564590e-01" purity="1.5369567088782787e-02" nType="-99"/>
        </Node>
      </Node>
    </BinaryTree>
    <BinaryTree type="DecisionTree" boostWeight="1.0000000000000000e+00" itree="50">
      <Node pos="s" depth="0" NCoef="0" IVar="20" Cut="7.4074488878250122e-01" cType="1" res="-5.5992259876802564e-04" rms="2.8975489735603333e-01" purity="4.9963021278381348e-01" nType="0">
        <Node pos="l" depth="1" NCoef="0" IVar="16" Cut="1.2071418762207031e-01" cType="1" res="-3.5918872803449631e-02" rms="3.1685546040534973e-01" purity="2.9220068454742432e-01" nType="0">
          <Node pos="l" depth="2" NCoef="0" IVar="-1" Cut="0.0000000000000000e+00" cType="1" res="-8.2482158904895186e-04" rms="3.6620983481407166e-01" purity="4.2039239406585693e-01" nType="-99"/>
          <Node pos="r" depth="2" NCoef="0" IVar="-1" Cut="0.0000000000000000e+00" cType="1" res="-2.2188555449247360e-02" rms="1.8549557030200958e-01" purity="5.9306800365447998e-02" nType="-99"/>
        </Node>
        <Node pos="r" depth="1" NCoef="0" IVar="14" Cut="8.3058311462402344e+01" cType="1" res="6.9188192486763000e-02" rms="2.1023508906364441e-01" purity="9.0880012512207031e-01" nType="0">
          <Node pos="l" depth="2" NCoef="0" IVar="-1" Cut="0.0000000000000000e+00" cType="1" res="1.8048079684376717e-02" rms="2.0506656169891357e-01" purity="9.4900131225585938e-01" nType="-99"/>
          <Node pos="r" depth="2" NCoef="0" IVar="-1" Cut="0.0000000000000000e+00" cType="1" res="-2.4661805480718613e-02" rms="2.2257982194423676e-01" purity="6.5778836607933044e-02" nType="-99"/>
        </Node>
      </Node>
    </BinaryTree>
    <BinaryTree type="DecisionTree" boostWeight="1.0000000000000000e+00" itree="51">
      <Node pos="s" depth="0" NCoef="0" IVar="16" Cut="2.2004956007003784e-01" cType="1" res="3.2882366213016212e-04" rms="2.9013690352439880e-01" purity="4.9911227822303772e-01" nType="0">
        <Node pos="l" depth="1" NCoef="0" IVar="15" Cut="4.1907170414924622e-01" cType="1" res="2.6246827095746994e-02" rms="3.1034347414970398e-01" purity="6.2362360954284668e-01" nType="0">
          <Node pos="l" depth="2" NCoef="0" IVar="-1" Cut="0.0000000000000000e+00" cType="1" res="8.3984490483999252e-03" rms="3.2009145617485046e-01" purity="7.2177451848983765e-01" nType="-99"/>
          <Node pos="r" depth="2" NCoef="0" IVar="-1" Cut="0.0000000000000000e+00" cType="1" res="-2.0824318751692772e-02" rms="2.1160019934177399e-01" purity="8.5430905222892761e-02" nType="-99"/>
        </Node>
        <Node pos="r" depth="1" NCoef="0" IVar="13" Cut="1.4374217224121094e+02" cType="1" res="-8.7290592491626740e-02" rms="1.8224118649959564e-01" purity="7.8184202313423157e-02" nType="0">
          <Node pos="l" depth="2" NCoef="0" IVar="-1" Cut="0.0000000000000000e+00" cType="1" res="-2.4187870323657990e-02" rms="1.7647159099578857e-01" purity="6.2820382416248322e-02" nType="-99"/>
          <Node pos="r" depth="2" NCoef="0" IVar="-1" Cut="0.0000000000000000e+00" cType="1" res="-6.2699508853256702e-03" rms="2.0347045361995697e-01" purity="1.7486369609832764e-01" nType="-99"/>
        </Node>
      </Node>
    </BinaryTree>
    <BinaryTree type="DecisionTree" boostWeight="1.0000000000000000e+00" itree="52">
      <Node pos="s" depth="0" NCoef="0" IVar="20" Cut="3.1222683191299438e-01" cType="1" res="6.3098943792283535e-04" rms="2.8764533996582031e-01" purity="5.0045496225357056e-01" nType="0">
        <Node pos="l" depth="1" NCoef="0" IVar="20" Cut="8.2987193018198013e-03" cType="1" res="-4.9887944012880325e-02" rms="3.0408173799514771e-01" purity="1.9364248216152191e-01" nType="0">
          <Node pos="l" depth="2" NCoef="0" IVar="-1" Cut="0.0000000000000000e+00" cType="1" res="9.2609608545899391e-03" rms="3.6252221465110779e-01" purity="3.7339463829994202e-01" nType="-99"/>
          <Node pos="r" depth="2" NCoef="0" IVar="-1" Cut="0.0000000000000000e+00" cType="1" res="-1.2190951965749264e-02" rms="2.9166838526725769e-01" purity="1.6840822994709015e-01" nType="-99"/>
        </Node>
        <Node pos="r" depth="1" NCoef="0" IVar="14" Cut="8.6457382202148438e+01" cType="1" res="4.6205941587686539e-02" rms="2.6379218697547913e-01" purity="7.7724158763885498e-01" nType="0">
          <Node pos="l" depth="2" NCoef="0" IVar="-1" Cut="0.0000000000000000e+00" cType="1" res="1.2370130978524685e-02" rms="2.7108561992645264e-01" purity="8.6680001020431519e-01" nType="-99"/>
          <Node pos="r" depth="2" NCoef="0" IVar="-1" Cut="0.0000000000000000e+00" cType="1" res="-2.7147084474563599e-02" rms="1.1986972391605377e-01" purity="1.3542738743126392e-02" nType="-99"/>
        </Node>
      </Node>
    </BinaryTree>
    <BinaryTree type="DecisionTree" boostWeight="1.0000000000000000e+00" itree="53">
      <Node pos="s" depth="0" NCoef="0" IVar="20" Cut="8.3713114261627197e-01" cType="1" res="-3.6254455335438251e-04" rms="2.8824919462203979e-01" purity="4.9756246805191040e-01" nType="0">
        <Node pos="l" depth="1" NCoef="0" IVar="15" Cut="8.7451823055744171e-02" cType="1" res="-2.8632981702685356e-02" rms="3.1428721547126770e-01" purity="3.2906836271286011e-01" nType="0">
          <Node pos="l" depth="2" NCoef="0" IVar="-1" Cut="0.0000000000000000e+00" cType="1" res="4.8450316535308957e-04" rms="3.6875712871551514e-01" purity="4.8893868923187256e-01" nType="-99"/>
          <Node pos="r" depth="2" NCoef="0" IVar="-1" Cut="0.0000000000000000e+00" cType="1" res="-1.8475396558642387e-02" rms="2.0245432853698730e-01" purity="9.6288971602916718e-02" nType="-99"/>
        </Node>
        <Node pos="r" depth="1" NCoef="0" IVar="14" Cut="7.0083885192871094e+01" cType="1" res="7.3226451873779297e-02" rms="1.8642212450504303e-01" purity="9.3615865707397461e-01" nType="0">
          <Node pos="l" depth="2" NCoef="0" IVar="-1" Cut="0.0000000000000000e+00" cType="1" res="2.0464329048991203e-02" rms="1.7182326316833496e-01" purity="9.6793878078460693e-01" nType="-99"/>
          <Node pos="r" depth="2" NCoef="0" IVar="-1" Cut="0.0000000000000000e+00" cType="1" res="-6.4310673624277115e-03" rms="3.1564959883689880e-01" purity="4.6125054359436035e-01" nType="-99"/>
        </Node>
      </Node>
    </BinaryTree>
    <BinaryTree type="DecisionTree" boostWeight="1.0000000000000000e+00" itree="54">
      <Node pos="s" depth="0" NCoef="0" IVar="3" Cut="1.5073988437652588e+00" cType="1" res="3.1365871109301224e-05" rms="2.8604340553283691e-01" purity="4.9870470166206360e-01" nType="0">
        <Node pos="l" depth="1" NCoef="0" IVar="16" Cut="7.0099431276321411e-01" cType="1" res="4.1189890354871750e-02" rms="3.1541478633880615e-01" purity="7.4168509244918823e-01" nType="0">
          <Node pos="l" depth="2" NCoef="0" IVar="-1" Cut="0.0000000000000000e+00" cType="1" res="9.4243586063385010e-03" rms="3.1621509790420532e-01" purity="7.9227715730667114e-01" nType="-99"/>
          <Node pos="r" depth="2" NCoef="0" IVar="-1" Cut="0.0000000000000000e+00" cType="1" res="-2.4033105000853539e-02" rms="2.3971249163150787e-01" purity="9.9294602870941162e-02" nType="-99"/>
        </Node>
        <Node pos="r" depth="1" NCoef="0" IVar="2" Cut="4.7127480506896973e+00" cType="1" res="-4.9387253820896149e-02" rms="2.3692542314529419e-01" purity="2.0696063339710236e-01" nType="0">
          <Node pos="l" depth="2" NCoef="0" IVar="-1" Cut="0.0000000000000000e+00" cType="1" res="-1.4787444844841957e-02" rms="2.3343369364738464e-01" purity="1.3541655242443085e-01" nType="-99"/>
          <Node pos="r" depth="2" NCoef="0" IVar="-1" Cut="0.0000000000000000e+00" cType="1" res="8.8621396571397781e-03" rms="2.4873721599578857e-01" purity="8.4982502460479736e-01" nType="-99"/>
        </Node>
      </Node>
    </BinaryTree>
    <BinaryTree type="DecisionTree" boostWeight="1.0000000000000000e+00" itree="55">
      <Node pos="s" depth="0" NCoef="0" IVar="14" Cut="7.4109657287597656e+01" cType="1" res="-7.1461434708908200e-04" rms="2.8611963987350464e-01" purity="4.9708500504493713e-01" nType="0">
        <Node pos="l" depth="1" NCoef="0" IVar="15" Cut="5.3850692510604858e-01" cType="1" res="2.7251547202467918e-02" rms="3.2762974500656128e-01" purity="6.9072765111923218e-01" nType="0">
          <Node pos="l" depth="2" NCoef="0" IVar="-1" Cut="0.0000000000000000e+00" cType="1" res="7.5747519731521606e-03" rms="3.3347594738006592e-01" purity="7.6616847515106201e-01" nType="-99"/>
          <Node pos="r" depth="2" NCoef="0" IVar="-1" Cut="0.0000000000000000e+00" cType="1" res="-2.1068749949336052e-02" rms="2.3390448093414307e-01" purity="9.5140382647514343e-02" nType="-99"/>
        </Node>
        <Node pos="r" depth="1" NCoef="0" IVar="14" Cut="8.4199234008789062e+01" cType="1" res="-6.8299733102321625e-02" rms="1.1763262748718262e-01" purity="2.9113531112670898e-02" nType="0">
          <Node pos="l" depth="2" NCoef="0" IVar="-1" Cut="0.0000000000000000e+00" cType="1" res="-9.3321697786450386e-03" rms="2.6472902297973633e-01" purity="1.7684289813041687e-01" nType="-99"/>
          <Node pos="r" depth="2" NCoef="0" IVar="-1" Cut="0.0000000000000000e+00" cType="1" res="-2.6545885950326920e-02" rms="6.6476166248321533e-02" purity="4.7281375154852867e-03" nType="-99"/>
        </Node>
      </Node>
    </BinaryTree>
    <BinaryTree type="DecisionTree" boostWeight="1.0000000000000000e+00" itree="56">
      <Node pos="s" depth="0" NCoef="0" IVar="3" Cut="1.7066344022750854e+00" cType="1" res="-8.9870853116735816e-04" rms="2.8451529145240784e-01" purity="4.9809932708740234e-01" nType="0">
        <Node pos="l" depth="1" NCoef="0" IVar="16" Cut="3.2950595021247864e-01" cType="1" res="3.4413952380418777e-02" rms="3.1655526161193848e-01" purity="7.1352511644363403e-01" nType="0">
          <Node pos="l" depth="2" NCoef="0" IVar="-1" Cut="0.0000000000000000e+00" cType="1" res="8.9469850063323975e-03" rms="3.1918936967849731e-01" purity="7.8378003835678101e-01" nType="-99"/>
          <Node pos="r" depth="2" NCoef="0" IVar="-1" Cut="0.0000000000000000e+00" cType="1" res="-1.9219318404793739e-02" rms="2.5449207425117493e-01" purity="1.5185232460498810e-01" nType="-99"/>
        </Node>
        <Node pos="r" depth="1" NCoef="0" IVar="17" Cut="9.3687695264816284e-01" cType="1" res="-5.3582780063152313e-02" rms="2.1813040971755981e-01" purity="1.7669874429702759e-01" nType="0">
          <Node pos="l" depth="2" NCoef="0" IVar="-1" Cut="0.0000000000000000e+00" cType="1" res="-1.6999445855617523e-02" rms="2.1067653596401215e-01" purity="1.0068716853857040e-01" nType="-99"/>
          <Node pos="r" depth="2" NCoef="0" IVar="-1" Cut="0.0000000000000000e+00" cType="1" res="5.8715883642435074e-03" rms="2.6126676797866821e-01" purity="8.3921933174133301e-01" nType="-99"/>
        </Node>
      </Node>
    </BinaryTree>
    <BinaryTree type="DecisionTree" boostWeight="1.0000000000000000e+00" itree="57">
      <Node pos="s" depth="0" NCoef="0" IVar="14" Cut="7.4128150939941406e+01" cType="1" res="2.3191811051219702e-03" rms="2.8415673971176147e-01" purity="5.0082224607467651e-01" nType="0">
        <Node pos="l" depth="1" NCoef="0" IVar="16" Cut="5.0868672132492065e-01" cType="1" res="2.9184700921177864e-02" rms="3.2538533210754395e-01" purity="6.9578957557678223e-01" nType="0">
          <Node pos="l" depth="2" NCoef="0" IVar="-1" Cut="0.0000000000000000e+00" cType="1" res="7.6592862606048584e-03" rms="3.2915166020393372e-01" purity="7.6056921482086182e-01" nType="-99"/>
          <Node pos="r" depth="2" NCoef="0" IVar="-1" Cut="0.0000000000000000e+00" cType="1" res="-2.1185988560318947e-02" rms="2.4717570841312408e-01" purity="1.0781797766685486e-01" nType="-99"/>
        </Node>
        <Node pos="r" depth="1" NCoef="0" IVar="14" Cut="8.9261848449707031e+01" cType="1" res="-6.2388941645622253e-02" rms="1.1954166740179062e-01" purity="3.1225286424160004e-02" nType="0">
          <Node pos="l" depth="2" NCoef="0" IVar="-1" Cut="0.0000000000000000e+00" cType="1" res="-1.0001564398407936e-02" rms="2.4372422695159912e-01" purity="1.4850333333015442e-01" nType="-99"/>
          <Node pos="r" depth="2" NCoef="0" IVar="-1" Cut="0.0000000000000000e+00" cType="1" res="-2.6968967169523239e-02" rms="5.3853996098041534e-02" purity="1.9780914299190044e-03" nType="-99"/>
        </Node>
      </Node>
    </BinaryTree>
    <BinaryTree type="DecisionTree" boostWeight="1.0000000000000000e+00" itree="58">
      <Node pos="s" depth="0" NCoef="0" IVar="20" Cut="7.6068580150604248e-01" cType="1" res="5.1063002320006490e-04" rms="2.8379413485527039e-01" purity="5.0066173076629639e-01" nType="0">
        <Node pos="l" depth="1" NCoef="0" IVar="15" Cut="1.5041090548038483e-01" cType="1" res="-2.7532232925295830e-02" rms="3.1159463524818420e-01" purity="3.0166554450988770e-01" nType="0">
          <Node pos="l" depth="2" NCoef="0" IVar="-1" Cut="0.0000000000000000e+00" cType="1" res="-2.7149147354066372e-04" rms="3.6830082535743713e-01" purity="4.5141360163688660e-01" nType="-99"/>
          <Node pos="r" depth="2" NCoef="0" IVar="-1" Cut="0.0000000000000000e+00" cType="1" res="-2.0018320530653000e-02" rms="1.7750315368175507e-01" purity="5.7956904172897339e-02" nType="-99"/>
        </Node>
        <Node pos="r" depth="1" NCoef="0" IVar="14" Cut="7.8901733398437500e+01" cType="1" res="5.8874033391475677e-02" rms="2.0260193943977356e-01" purity="9.1481697559356689e-01" nType="0">
          <Node pos="l" depth="2" NCoef="0" IVar="-1" Cut="0.0000000000000000e+00" cType="1" res="1.7277335748076439e-02" rms="1.9728267192840576e-01" purity="9.5440030097961426e-01" nType="-99"/>
          <Node pos="r" depth="2" NCoef="0" IVar="-1" Cut="0.0000000000000000e+00" cType="1" res="-1.7698066309094429e-02" rms="2.4581277370452881e-01" purity="1.2502862513065338e-01" nType="-99"/>
        </Node>
      </Node>
    </BinaryTree>
    <BinaryTree type="DecisionTree" boostWeight="1.0000000000000000e+00" itree="59">
      <Node pos="s" depth="0" NCoef="0" IVar="17" Cut="3.4883719682693481e-01" cType="1" res="2.7869283803738654e-04" rms="2.8311708569526672e-01" purity="4.9880695343017578e-01" nType="0">
        <Node pos="l" depth="1" NCoef="0" IVar="20" Cut="3.2805502414703369e-03" cType="1" res="-3.7887290120124817e-02" rms="2.9956817626953125e-01" purity="2.0674641430377960e-01" nType="0">
          <Node pos="l" depth="2" NCoef="0" IVar="-1" Cut="0.0000000000000000e+00" cType="1" res="1.6890749335289001e-02" rms="3.8566839694976807e-01" purity="4.8440709710121155e-01" nType="-99"/>
          <Node pos="r" depth="2" NCoef="0" IVar="-1" Cut="0.0000000000000000e+00" cType="1" res="-9.2816511169075966e-03" rms="2.9167348146438599e-01" purity="1.9147193431854248e-01" nType="-99"/>
        </Node>
        <Node pos="r" depth="1" NCoef="0" IVar="15" Cut="5.7829624414443970e-01" cType="1" res="4.0665630251169205e-02" rms="2.5853270292282104e-01" purity="8.0786317586898804e-01" nType="0">
          <Node pos="l" depth="2" NCoef="0" IVar="-1" Cut="0.0000000000000000e+00" cType="1" res="1.1466631665825844e-02" rms="2.5447776913642883e-01" purity="8.6150723695755005e-01" nType="-99"/>
          <Node pos="r" depth="2" NCoef="0" IVar="-1" Cut="0.0000000000000000e+00" cType="1" res="-1.6883313655853271e-02" rms="2.7338439226150513e-01" purity="1.5208975970745087e-01" nType="-99"/>
        </Node>
      </Node>
    </BinaryTree>
    <BinaryTree type="DecisionTree" boostWeight="1.0000000000000000e+00" itree="60">
      <Node pos="s" depth="0" NCoef="0" IVar="14" Cut="7.3555557250976562e+01" cType="1" res="5.5966898798942566e-04" rms="2.8454315662384033e-01" purity="5.0129711627960205e-01" nType="0">
        <Node pos="l" depth="1" NCoef="0" IVar="16" Cut="3.5276165604591370e-01" cType="1" res="2.5073958560824394e-02" rms="3.2677882909774780e-01" purity="6.9595789909362793e-01" nType="0">
          <Node pos="l" depth="2" NCoef="0" IVar="-1" Cut="0.0000000000000000e+00" cType="1" res="7.0159398019313812e-03" rms="3.3081364631652832e-01" purity="7.6532924175262451e-01" nType="-99"/>
          <Node pos="r" depth="2" NCoef="0" IVar="-1" Cut="0.0000000000000000e+00" cType="1" res="-1.8202275037765503e-02" rms="2.6276123523712158e-01" purity="1.3965623080730438e-01" nType="-99"/>
        </Node>
        <Node pos="r" depth="1" NCoef="0" IVar="19" Cut="4.9833886325359344e-02" cType="1" res="-5.8845631778240204e-02" rms="1.1580640077590942e-01" purity="2.9577046632766724e-02" nType="0">
          <Node pos="l" depth="2" NCoef="0" IVar="-1" Cut="0.0000000000000000e+00" cType="1" res="-1.4326154254376888e-02" rms="3.0720451474189758e-01" purity="2.7643251419067383e-01" nType="-99"/>
          <Node pos="r" depth="2" NCoef="0" IVar="-1" Cut="0.0000000000000000e+00" cType="1" res="-2.4132877588272095e-02" rms="7.6496630907058716e-02" purity="6.9397976621985435e-03" nType="-99"/>
        </Node>
      </Node>
    </BinaryTree>
    <BinaryTree type="DecisionTree" boostWeight="1.0000000000000000e+00" itree="61">
      <Node pos="s" depth="0" NCoef="0" IVar="19" Cut="9.8671096563339233e-01" cType="1" res="6.1071355594322085e-04" rms="2.8320881724357605e-01" purity="4.9949175119400024e-01" nType="0">
